{"learner":{"attributes":{"scikit_learn":"{\"_estimator_type\": \"classifier\"}"},"feature_names":["revenue_usd","net_income_usd","operating_income_usd","total_assets_usd","total_liabilities_usd","long_term_debt_usd","stockholders_equity_usd","employees","profit_margin","operating_margin","debt_to_equity","debt_to_assets","asset_to_liability","equity_ratio","revenue_per_employee","net_income_per_employee","revenue_growth_yoy","net_income_growth_yoy","revenue_cagr_3yr","log_revenue","log_employees","panic_word_count","macro_interest_rate","nasdaq_annual_return"],"feature_types":["float","float","float","float","float","float","float","float","float","float","float","float","float","float","float","float","float","float","float","float","float","float","float","float"],"gradient_booster":{"model":{"cats":{"enc":[],"feature_segments":[],"sorted_idx":[]},"gbtree_model_param":{"num_parallel_tree":"1","num_trees":"100"},"iteration_indptr":[0,1,2,3,4,5,6,7,8,9,10,11,12,13,14,15,16,17,18,19,20,21,22,23,24,25,26,27,28,29,30,31,32,33,34,35,36,37,38,39,40,41,42,43,44,45,46,47,48,49,50,51,52,53,54,55,56,57,58,59,60,61,62,63,64,65,66,67,68,69,70,71,72,73,74,75,76,77,78,79,80,81,82,83,84,85,86,87,88,89,90,91,92,93,94,95,96,97,98,99,100],"tree_info":[0,0,0,0,0,0,0,0,0,0,0,0,0,0,0,0,0,0,0,0,0,0,0,0,0,0,0,0,0,0,0,0,0,0,0,0,0,0,0,0,0,0,0,0,0,0,0,0,0,0,0,0,0,0,0,0,0,0,0,0,0,0,0,0,0,0,0,0,0,0,0,0,0,0,0,0,0,0,0,0,0,0,0,0,0,0,0,0,0,0,0,0,0,0,0,0,0,0,0,0],"trees":[{"base_weights":[-4.456422E-8,1.4094636E0,-5.5420494E-1,-1.1111112E-1,1.5552632E0,-1.0296812E0,4.2540616E-1,5.6055363E-2,1.71629E-1,4.927536E-2,-1.3826828E-1,-1.3846155E-1,6.5481E-2],"categories":[],"categories_nodes":[],"categories_segments":[],"categories_sizes":[],"default_left":[0,0,0,0,0,0,0,0,0,0,0,0,0],"id":0,"left_children":[1,3,5,-1,7,9,11,-1,-1,-1,-1,-1,-1],"loss_changes":[8.436223E1,1.2929703E1,3.6545082E1,0E0,3.7199554E0,2.888564E1,1.1718502E1,0E0,0E0,0E0,0E0,0E0,0E0],"parents":[2147483647,0,0,1,1,2,2,4,4,5,5,6,6],"right_children":[2,4,6,-1,8,10,12,-1,-1,-1,-1,-1,-1],"split_conditions":[-1.31602E8,1.0210478E-1,2.3838201E-1,-1.1111112E-1,5.929E8,2.456594E-2,1.813255E9,5.6055363E-2,1.71629E-1,4.927536E-2,-1.3826828E-1,-1.3846155E-1,6.5481E-2],"split_indices":[1,18,18,0,6,18,0,0,0,0,0,0,0],"split_type":[0,0,0,0,0,0,0,0,0,0,0,0,0],"sum_hessian":[1.06E2,2.9480768E1,7.6519226E1,1.25E0,2.8230768E1,5.148077E1,2.5038462E1,4.557692E0,2.3673077E1,9.615384E0,4.1865383E1,2.25E0,2.2788462E1],"tree_param":{"num_deleted":"0","num_feature":"24","num_nodes":"13","size_leaf_vector":"1"}},{"base_weights":[-4.1858427E-4,1.2802643E0,-5.025499E-1,-1.0512451E-1,1.4164484E0,-7.8023154E-1,9.4260305E-1,6.1360426E-2,1.5908986E-1,-1.071729E-1,7.000531E-2,1.4924008E-1,-1.3319589E-2],"categories":[],"categories_nodes":[],"categories_segments":[],"categories_sizes":[],"default_left":[0,0,0,0,0,0,0,0,0,0,0,0,0],"id":1,"left_children":[1,3,5,-1,7,9,11,-1,-1,-1,-1,-1,-1],"loss_changes":[6.918102E1,1.1109684E1,3.1746832E1,0E0,3.0929756E0,2.8957512E1,7.833767E0,0E0,0E0,0E0,0E0,0E0,0E0],"parents":[2147483647,0,0,1,1,2,2,4,4,5,5,6,6],"right_children":[2,4,6,-1,8,10,12,-1,-1,-1,-1,-1,-1],"split_conditions":[-1.31602E8,1.0210478E-1,6.9476175E-1,-1.0512451E-1,6.17287E8,5.489725E-1,1.5497091E-1,6.1360426E-2,1.5908986E-1,-1.071729E-1,7.000531E-2,1.4924008E-1,-1.3319589E-2],"split_indices":[1,18,18,0,6,23,8,0,0,0,0,0,0],"split_type":[0,0,0,0,0,0,0,0,0,0,0,0,0],"sum_hessian":[1.05578636E2,2.929986E1,7.627877E1,1.2461498E0,2.805371E1,6.437032E1,1.1908452E1,5.8140435E0,2.2239666E1,5.4010567E1,1.03597555E1,7.624584E0,4.283868E0],"tree_param":{"num_deleted":"0","num_feature":"24","num_nodes":"13","size_leaf_vector":"1"}},{"base_weights":[1.8081502E-3,1.0902672E0,-4.934616E-1,-9.978762E-2,1.2016863E0,-7.6901245E-1,8.638857E-1,1.3647026E-1,-3.8948343E-3,-1.0000783E-1,1.0133397E-1,1.3723557E-1,-1.2235604E-2],"categories":[],"categories_nodes":[],"categories_segments":[],"categories_sizes":[],"default_left":[0,0,0,0,0,0,0,0,0,0,0,0,0],"id":2,"left_children":[1,3,5,-1,7,9,11,-1,-1,-1,-1,-1,-1],"loss_changes":[5.7484406E1,8.957504E0,2.8075985E1,0E0,6.5474052E0,2.6321472E1,6.6061125E0,0E0,0E0,0E0,0E0,0E0,0E0],"parents":[2147483647,0,0,1,1,2,2,4,4,5,5,6,6],"right_children":[2,4,6,-1,8,10,12,-1,-1,-1,-1,-1,-1],"split_conditions":[-5.7294E7,1.0210478E-1,6.9476175E-1,-9.978762E-2,2.37139E10,9.5391E10,1.5497091E-1,1.3647026E-1,-3.8948343E-3,-1.0000783E-1,1.0133397E-1,1.3723557E-1,-1.2235604E-2],"split_indices":[1,18,18,0,3,6,8,0,0,0,0,0,0],"split_type":[0,0,0,0,0,0,0,0,0,0,0,0,0],"sum_hessian":[1.04636116E2,3.2346516E1,7.2289604E1,1.2355013E0,3.1111013E1,6.0451065E1,1.1838538E1,2.7409473E1,3.7015407E0,5.390205E1,6.5490146E0,7.5529923E0,4.285546E0],"tree_param":{"num_deleted":"0","num_feature":"24","num_nodes":"13","size_leaf_vector":"1"}},{"base_weights":[3.3497042E-3,1.1556885E0,-3.9220443E-1,-9.4994985E-2,1.2925982E0,-6.5126383E-1,9.10888E-1,1.3884054E-1,-3.4157243E-3,-8.406407E-2,9.245836E-2,1.4035346E-1,-1.1240831E-2],"categories":[],"categories_nodes":[],"categories_segments":[],"categories_sizes":[],"default_left":[0,0,0,0,0,0,0,0,0,0,0,0,0],"id":3,"left_children":[1,3,5,-1,7,9,11,-1,-1,-1,-1,-1,-1],"loss_changes":[4.8001305E1,8.985691E0,2.7060905E1,0E0,3.313095E0,2.0469204E1,6.922658E0,0E0,0E0,0E0,0E0,0E0,0E0],"parents":[2147483647,0,0,1,1,2,2,4,4,5,5,6,6],"right_children":[2,4,6,-1,8,10,12,-1,-1,-1,-1,-1,-1],"split_conditions":[-1.50669E8,1.0210478E-1,6.9476175E-1,-9.4994985E-2,5.33E0,9.5391E10,1.5497091E-1,1.3884054E-1,-3.4157243E-3,-8.406407E-2,9.245836E-2,1.4035346E-1,-1.1240831E-2],"split_indices":[2,18,18,0,22,6,8,0,0,0,0,0,0],"split_type":[0,0,0,0,0,0,0,0,0,0,0,0,0],"sum_hessian":[1.0331493E2,2.5910393E1,7.740454E1,1.2193027E0,2.4691092E1,6.498542E1,1.2419116E1,2.298485E1,1.7062415E0,5.843015E1,6.5552735E0,8.132363E0,4.286753E0],"tree_param":{"num_deleted":"0","num_feature":"24","num_nodes":"13","size_leaf_vector":"1"}},{"base_weights":[5.134333E-3,9.5297E-1,-4.190628E-1,1.1344653E0,-2.241253E-1,-6.515272E-1,7.3376244E-1,1.2347531E-1,-1.3612834E-2,1.0725292E-1,-1.3460822E-1,6.0333382E-2,-8.985186E-2,-2.0193232E-2,1.18447065E-1],"categories":[],"categories_nodes":[],"categories_segments":[],"categories_sizes":[],"default_left":[0,0,0,0,0,0,0,0,0,0,0,0,0,0,0],"id":4,"left_children":[1,3,5,7,9,11,13,-1,-1,-1,-1,-1,-1,-1,-1],"loss_changes":[4.171881E1,7.107395E0,1.9689981E1,3.730629E0,8.892829E0,1.919687E1,5.510895E0,0E0,0E0,0E0,0E0,0E0,0E0,0E0,0E0],"parents":[2147483647,0,0,1,1,2,2,3,3,4,4,5,5,6,6],"right_children":[2,4,6,8,10,12,14,-1,-1,-1,-1,-1,-1,-1,-1],"split_conditions":[-5.7294E7,2.37139E10,6.9476175E-1,5.33E0,-2.7854426E-2,2.456594E-2,1.0953E10,1.2347531E-1,-1.3612834E-2,1.0725292E-1,-1.3460822E-1,6.0333382E-2,-8.985186E-2,-2.0193232E-2,1.18447065E-1],"split_indices":[1,3,18,22,23,18,5,0,0,0,0,0,0,0,0],"split_type":[0,0,0,0,0,0,0,0,0,0,0,0,0,0,0],"sum_hessian":[1.0176704E2,3.1078344E1,7.068869E1,2.6957941E1,4.1204047E0,5.9188343E1,1.1500344E1,2.5011957E1,1.9459838E0,1.9318292E0,2.1885755E0,9.496717E0,4.9691628E1,3.9181073E0,7.582237E0],"tree_param":{"num_deleted":"0","num_feature":"24","num_nodes":"15","size_leaf_vector":"1"}},{"base_weights":[6.418289E-3,-5.026779E-1,6.773448E-1,9.198383E-1,-7.332188E-1,8.444174E-1,-1.374142E-1,1.3345934E-1,-7.5243074E-3,7.865581E-2,-1.044616E-1,1.11299E-1,-2.9600829E-2],"categories":[],"categories_nodes":[],"categories_segments":[],"categories_sizes":[],"default_left":[0,0,0,0,0,0,0,0,0,0,0,0,0],"id":5,"left_children":[1,3,5,7,9,11,-1,-1,-1,-1,-1,-1,-1],"loss_changes":[3.4832657E1,1.969204E1,1.6238737E1,3.621285E0,2.4701435E1,1.2978855E1,0E0,0E0,0E0,0E0,0E0,0E0,0E0],"parents":[2147483647,0,0,1,1,2,2,3,3,4,4,5,5],"right_children":[2,4,6,8,10,12,-1,-1,-1,-1,-1,-1,-1],"split_conditions":[1.7754285E-1,-2.7854426E-2,2.4184641E-1,7.665958E-2,3.8E-1,1.73171E-1,-1.374142E-1,1.3345934E-1,-7.5243074E-3,7.865581E-2,-1.044616E-1,1.11299E-1,-2.9600829E-2],"split_indices":[18,23,11,9,22,8,0,0,0,0,0,0,0],"split_type":[0,0,0,0,0,0,0,0,0,0,0,0,0],"sum_hessian":[9.99824E1,5.698966E1,4.299274E1,7.530984E0,4.9458675E1,4.0299175E1,2.6935673E0,5.074652E0,2.4563317E0,8.151128E0,4.130755E1,3.2637123E1,7.662053E0],"tree_param":{"num_deleted":"0","num_feature":"24","num_nodes":"13","size_leaf_vector":"1"}},{"base_weights":[6.3928706E-3,9.834423E-1,-3.1683388E-1,-8.604743E-2,1.1101933E0,7.250003E-1,-5.493117E-1,1.2033826E-1,-7.044186E-3,1.0027448E-1,-1.0197549E-1,-9.735837E-2,2.6591271E-2],"categories":[],"categories_nodes":[],"categories_segments":[],"categories_sizes":[],"default_left":[0,0,0,0,0,0,0,0,0,0,0,0,0],"id":6,"left_children":[1,3,5,-1,7,9,11,-1,-1,-1,-1,-1,-1],"loss_changes":[3.1642714E1,6.77614E0,1.863709E1,0E0,2.696722E0,7.88882E0,2.1749874E1,0E0,0E0,0E0,0E0,0E0,0E0],"parents":[2147483647,0,0,1,1,2,2,4,4,5,5,6,6],"right_children":[2,4,6,-1,8,10,12,-1,-1,-1,-1,-1,-1],"split_conditions":[-1.50669E8,1.0210478E-1,-2.7854426E-2,-8.604743E-2,5.33E0,4.0109676E-1,5.02E0,1.2033826E-1,-7.044186E-3,1.0027448E-1,-1.0197549E-1,-9.735837E-2,2.6591271E-2],"split_indices":[2,18,23,0,22,10,22,0,0,0,0,0,0],"split_type":[0,0,0,0,0,0,0,0,0,0,0,0,0],"sum_hessian":[9.820924E1,2.3905413E1,7.430383E1,1.1652448E0,2.2740168E1,1.3169043E1,6.113479E1,2.1058706E1,1.6814624E0,1.172745E1,1.4415919E0,4.0080967E1,2.1053822E1],"tree_param":{"num_deleted":"0","num_feature":"24","num_nodes":"13","size_leaf_vector":"1"}},{"base_weights":[5.5506984E-3,8.710819E-1,-3.077289E-1,-8.250004E-2,9.813542E-1,-4.5834574E-1,1.0923363E0,2.1384934E-2,1.1745063E-1,-8.638643E-2,3.262514E-2,-5.3279265E-3,1.5930699E-1],"categories":[],"categories_nodes":[],"categories_segments":[],"categories_sizes":[],"default_left":[0,0,0,0,0,0,0,0,0,0,0,0,0],"id":7,"left_children":[1,3,5,-1,7,9,11,-1,-1,-1,-1,-1,-1],"loss_changes":[2.66581E1,5.696005E0,1.5725536E1,0E0,3.4531689E0,2.1246248E1,4.2772303E0,0E0,0E0,0E0,0E0,0E0,0E0],"parents":[2147483647,0,0,1,1,2,2,4,4,5,5,6,6],"right_children":[2,4,6,-1,8,10,12,-1,-1,-1,-1,-1,-1],"split_conditions":[-1.31602E8,1.0210478E-1,3.1258287E0,-8.250004E-2,6.17287E8,5.02E0,2.564887E9,2.1384934E-2,1.1745063E-1,-8.638643E-2,3.262514E-2,-5.3279265E-3,1.5930699E-1],"split_indices":[1,18,16,0,6,22,2,0,0,0,0,0,0],"split_type":[0,0,0,0,0,0,0,0,0,0,0,0,0],"sum_hessian":[9.6325195E1,2.5126099E1,7.11991E1,1.1381948E0,2.3987904E1,6.489087E1,6.3082337E0,5.2467394E0,1.8741165E1,4.271343E1,2.2177437E1,2.1904213E0,4.1178126E0],"tree_param":{"num_deleted":"0","num_feature":"24","num_nodes":"13","size_leaf_vector":"1"}},{"base_weights":[6.8813716E-3,-4.2083868E-1,5.7455033E-1,8.996029E-1,-6.31629E-1,7.243703E-1,-1.21633805E-1,1.14368774E-1,7.7285627E-3,7.738169E-2,-9.267172E-2,9.669121E-2,-2.5124883E-2],"categories":[],"categories_nodes":[],"categories_segments":[],"categories_sizes":[],"default_left":[0,0,0,0,0,0,0,0,0,0,0,0,0],"id":8,"left_children":[1,3,5,7,9,11,-1,-1,-1,-1,-1,-1,-1],"loss_changes":[2.345747E1,1.5906317E1,1.2018325E1,1.5170255E0,2.0668932E1,9.455135E0,0E0,0E0,0E0,0E0,0E0,0E0,0E0],"parents":[2147483647,0,0,1,1,2,2,3,3,4,4,5,5],"right_children":[2,4,6,8,10,12,-1,-1,-1,-1,-1,-1,-1],"split_conditions":[1.7754285E-1,-1.14098646E-1,2.4184641E-1,6.2067732E-2,3.8E-1,1.73171E-1,-1.21633805E-1,1.14368774E-1,7.7285627E-3,7.738169E-2,-9.267172E-2,9.669121E-2,-2.5124883E-2],"split_indices":[18,16,11,8,22,8,0,0,0,0,0,0,0],"split_type":[0,0,0,0,0,0,0,0,0,0,0,0,0],"sum_hessian":[9.461512E1,5.410638E1,4.050874E1,6.9984746E0,4.7107906E1,3.7931072E1,2.5776675E0,5.0952597E0,1.9032147E0,7.892968E0,3.921494E1,3.0385958E1,7.545115E0],"tree_param":{"num_deleted":"0","num_feature":"24","num_nodes":"13","size_leaf_vector":"1"}},{"base_weights":[6.94428E-3,8.430597E-1,-2.546018E-1,-7.917116E-2,9.640855E-1,7.2706157E-1,-4.7824895E-1,1.0630902E-1,-1.5616583E-2,9.723408E-2,-8.8362426E-2,-1.3896684E-1,-1.8234408E-2],"categories":[],"categories_nodes":[],"categories_segments":[],"categories_sizes":[],"default_left":[0,0,0,0,0,0,0,0,0,0,0,0,0],"id":9,"left_children":[1,3,5,-1,7,9,11,-1,-1,-1,-1,-1,-1],"loss_changes":[2.0678299E1,5.220644E0,1.6165554E1,0E0,2.5424957E0,6.2974386E0,1.5734702E1,0E0,0E0,0E0,0E0,0E0,0E0],"parents":[2147483647,0,0,1,1,2,2,4,4,5,5,6,6],"right_children":[2,4,6,-1,8,10,12,-1,-1,-1,-1,-1,-1],"split_conditions":[-1.50669E8,1.0210478E-1,-2.7854426E-2,-7.917116E-2,5.33E0,4.0109676E-1,2.7008262E-1,1.0630902E-1,-1.5616583E-2,9.723408E-2,-8.8362426E-2,-1.3896684E-1,-1.8234408E-2],"split_indices":[2,18,23,0,22,10,23,0,0,0,0,0,0],"split_type":[0,0,0,0,0,0,0,0,0,0,0,0,0],"sum_hessian":[9.257693E1,2.1529058E1,7.104787E1,1.1019992E0,2.042706E1,1.2765373E1,5.8282494E1,1.8815247E1,1.6118133E0,1.1422278E1,1.3430941E0,1.3378601E1,4.4903896E1],"tree_param":{"num_deleted":"0","num_feature":"24","num_nodes":"13","size_leaf_vector":"1"}},{"base_weights":[4.9163224E-3,-3.778034E-1,5.1576704E-1,7.9995066E-1,-5.764453E-1,6.531814E-1,-1.1155232E-1,1.1653882E-1,-3.8827911E-3,7.0481375E-2,-8.563395E-2,8.795028E-2,-2.190134E-2],"categories":[],"categories_nodes":[],"categories_segments":[],"categories_sizes":[],"default_left":[0,0,0,0,0,0,0,0,0,0,0,0,0],"id":10,"left_children":[1,3,5,7,9,11,-1,-1,-1,-1,-1,-1,-1],"loss_changes":[1.8122738E1,1.2860519E1,9.627199E0,2.5181913E0,1.7075592E1,7.544344E0,0E0,0E0,0E0,0E0,0E0,0E0,0E0],"parents":[2147483647,0,0,1,1,2,2,3,3,4,4,5,5],"right_children":[2,4,6,8,10,12,-1,-1,-1,-1,-1,-1,-1],"split_conditions":[1.7754285E-1,-2.7854426E-2,2.4184641E-1,7.665958E-2,3.8E-1,1.73171E-1,-1.1155232E-1,1.1653882E-1,-3.8827911E-3,7.0481375E-2,-8.563395E-2,8.795028E-2,-2.190134E-2],"split_indices":[18,23,11,9,22,8,0,0,0,0,0,0,0],"split_type":[0,0,0,0,0,0,0,0,0,0,0,0,0],"sum_hessian":[9.069677E1,5.199988E1,3.8696888E1,7.067768E0,4.4932117E1,3.6243454E1,2.4534326E0,4.6517253E0,2.4160428E0,7.7835517E0,3.7148563E1,2.8769756E1,7.473699E0],"tree_param":{"num_deleted":"0","num_feature":"24","num_nodes":"13","size_leaf_vector":"1"}},{"base_weights":[5.1321406E-3,7.738783E-1,-2.2685209E-1,-7.300964E-2,8.8865393E-1,-6.380183E-1,2.0743737E-1,2.044987E-2,1.07883714E-1,-5.7089934E-3,-1.3960615E-1,6.2187325E-2,-7.569281E-2],"categories":[],"categories_nodes":[],"categories_segments":[],"categories_sizes":[],"default_left":[0,0,0,0,0,0,0,0,0,0,0,0,0],"id":11,"left_children":[1,3,5,-1,7,9,11,-1,-1,-1,-1,-1,-1],"loss_changes":[1.6154202E1,4.2732716E0,1.2560694E1,0E0,2.3763552E0,1.5772583E1,1.430059E1,0E0,0E0,0E0,0E0,0E0,0E0],"parents":[2147483647,0,0,1,1,2,2,4,4,5,5,6,6],"right_children":[2,4,6,-1,8,10,12,-1,-1,-1,-1,-1,-1],"split_conditions":[-1.50669E8,1.0210478E-1,2.5371E10,-7.300964E-2,1.352648E9,2.37139E10,8.2006E10,2.044987E-2,1.07883714E-1,-5.7089934E-3,-1.3960615E-1,6.2187325E-2,-7.569281E-2],"split_indices":[2,18,0,0,4,3,0,0,0,0,0,0,0],"split_type":[0,0,0,0,0,0,0,0,0,0,0,0,0],"sum_hessian":[8.859804E1,1.999685E1,6.860119E1,1.037733E0,1.8959116E1,3.499775E1,3.3603443E1,4.5753307E0,1.4383785E1,2.0422342E1,1.4575406E1,2.3751421E1,9.852022E0],"tree_param":{"num_deleted":"0","num_feature":"24","num_nodes":"13","size_leaf_vector":"1"}},{"base_weights":[3.228535E-3,6.360068E-1,-2.4635983E-1,1.27873E-1,9.536612E-1,-7.312444E-1,1.8661208E-1,6.830525E-2,-7.545113E-2,1.0988934E-1,-2.0416332E-2,-1.04937755E-1,8.953263E-2,9.339737E-2,-3.145179E-2],"categories":[],"categories_nodes":[],"categories_segments":[],"categories_sizes":[],"default_left":[0,0,0,0,0,0,0,0,0,0,0,0,0,0,0],"id":12,"left_children":[1,3,5,7,9,11,13,-1,-1,-1,-1,-1,-1,-1,-1],"loss_changes":[1.4045769E1,3.9383078E0,1.3528097E1,5.821323E0,2.8010845E0,1.6615242E1,1.3212741E1,0E0,0E0,0E0,0E0,0E0,0E0,0E0,0E0],"parents":[2147483647,0,0,1,1,2,2,3,3,4,4,5,5,6,6],"right_children":[2,4,6,8,10,12,14,-1,-1,-1,-1,-1,-1,-1,-1],"split_conditions":[-5.7294E7,1.6066444E-1,2.5371E10,4.25E0,5.33E0,7.605934E-1,6.708E9,6.830525E-2,-7.545113E-2,1.0988934E-1,-2.0416332E-2,-1.04937755E-1,8.953263E-2,9.339737E-2,-3.145179E-2],"split_indices":[1,18,0,22,22,13,2,0,0,0,0,0,0,0,0],"split_type":[0,0,0,0,0,0,0,0,0,0,0,0,0,0,0],"sum_hessian":[8.6942276E1,2.415477E1,6.2787502E1,9.83109E0,1.432368E1,2.9293201E1,3.3494305E1,6.1730347E0,3.658055E0,1.2772459E1,1.5512208E0,2.4797941E1,4.495259E0,1.309753E1,2.0396772E1],"tree_param":{"num_deleted":"0","num_feature":"24","num_nodes":"15","size_leaf_vector":"1"}},{"base_weights":[4.531027E-3,-3.222433E-1,4.4665834E-1,8.1909966E-1,-5.099774E-1,5.747882E-1,-1.0465125E-1,1.4015785E-2,1.15788214E-1,6.5597504E-2,-7.735829E-2,1.09518945E-1,2.5546536E-2],"categories":[],"categories_nodes":[],"categories_segments":[],"categories_sizes":[],"default_left":[0,0,0,0,0,0,0,0,0,0,0,0,0],"id":13,"left_children":[1,3,5,7,9,11,-1,-1,-1,-1,-1,-1,-1],"loss_changes":[1.2546667E1,1.11190815E1,7.661765E0,1.5486264E0,1.3878859E1,5.475211E0,0E0,0E0,0E0,0E0,0E0,0E0,0E0],"parents":[2147483647,0,0,1,1,2,2,3,3,4,4,5,5],"right_children":[2,4,6,8,10,12,-1,-1,-1,-1,-1,-1,-1],"split_conditions":[1.7754285E-1,-1.14098646E-1,2.4184641E-1,3.7293643E-1,3.8E-1,1.6137146E0,-1.0465125E-1,1.4015785E-2,1.15788214E-1,6.5597504E-2,-7.735829E-2,1.09518945E-1,2.5546536E-2],"split_indices":[18,16,11,23,22,12,0,0,0,0,0,0,0],"split_type":[0,0,0,0,0,0,0,0,0,0,0,0,0],"sum_hessian":[8.4846405E1,4.894358E1,3.590283E1,6.4383125E0,4.250527E1,3.363191E1,2.2709188E0,2.6138E0,3.8245125E0,7.5633526E0,3.4941914E1,1.1865291E1,2.1766619E1],"tree_param":{"num_deleted":"0","num_feature":"24","num_nodes":"13","size_leaf_vector":"1"}},{"base_weights":[5.842836E-3,7.7501345E-1,-1.8563047E-1,9.880678E-1,-2.5868416E-1,-1.2842788E-1,8.299016E-2,1.08658336E-1,7.6077254E-3,-9.359706E-2,6.379349E-2,-2.0905185E-2,7.4194275E-2],"categories":[],"categories_nodes":[],"categories_segments":[],"categories_sizes":[],"default_left":[0,0,0,0,0,0,0,0,0,0,0,0,0],"id":14,"left_children":[1,3,5,7,9,-1,11,-1,-1,-1,-1,-1,-1],"loss_changes":[1.2528344E1,3.9894295E0,2.0215002E1,1.1989088E0,2.8377442E0,0E0,1.0872068E1,0E0,0E0,0E0,0E0,0E0,0E0],"parents":[2147483647,0,0,1,1,2,2,3,3,4,4,6,6],"right_children":[2,4,6,8,10,-1,12,-1,-1,-1,-1,-1,-1],"split_conditions":[-2.7854426E-2,1.5836345E-1,2.7008262E-1,6.346E10,1.1165211E0,-1.2842788E-1,5.489725E-1,1.08658336E-1,7.6077254E-3,-9.359706E-2,6.379349E-2,-2.0905185E-2,7.4194275E-2],"split_indices":[23,8,23,0,18,0,23,0,0,0,0,0,0],"split_type":[0,0,0,0,0,0,0,0,0,0,0,0,0],"sum_hessian":[8.309047E1,1.5953953E1,6.713652E1,1.326422E1,2.6897326E0,1.2447146E1,5.4689373E1,1.1798296E1,1.465924E0,1.5072786E0,1.182454E0,3.8367832E1,1.6321537E1],"tree_param":{"num_deleted":"0","num_feature":"24","num_nodes":"13","size_leaf_vector":"1"}},{"base_weights":[5.345205E-3,6.792122E-1,-1.8866135E-1,8.19444E-1,-3.576702E-2,7.615604E-1,-3.3953685E-1,1.5890595E-2,1.02456115E-1,-7.805023E-2,1.0870182E-1,-5.0610002E-2,9.1586046E-2],"categories":[],"categories_nodes":[],"categories_segments":[],"categories_sizes":[],"default_left":[0,0,0,0,0,0,0,0,0,0,0,0,0],"id":15,"left_children":[1,3,5,7,-1,9,11,-1,-1,-1,-1,-1,-1],"loss_changes":[1.0902085E1,3.003376E0,9.544498E0,2.1029472E0,0E0,5.4573956E0,1.2296158E1,0E0,0E0,0E0,0E0,0E0,0E0],"parents":[2147483647,0,0,1,1,2,2,3,3,5,5,6,6],"right_children":[2,4,6,8,-1,10,12,-1,-1,-1,-1,-1,-1],"split_conditions":[-1.50669E8,5.33E0,5.3835835E-2,1.437226E9,-3.576702E-2,2.9489E9,3.1258287E0,1.5890595E-2,1.02456115E-1,-7.805023E-2,1.0870182E-1,-5.0610002E-2,9.1586046E-2],"split_indices":[2,22,10,4,0,1,16,0,0,0,0,0,0],"split_type":[0,0,0,0,0,0,0,0,0,0,0,0,0],"sum_hessian":[8.1410805E1,1.7639696E1,6.377111E1,1.5722967E1,1.916728E0,8.183485E0,5.5587627E1,4.146078E0,1.1576889E1,1.1824956E0,7.0009894E0,4.9603245E1,5.9843817E0],"tree_param":{"num_deleted":"0","num_feature":"24","num_nodes":"13","size_leaf_vector":"1"}},{"base_weights":[7.042286E-3,1.1405006E-1,-1.1654752E-1,-6.442902E-2,7.699162E-1,4.3454196E-2,-6.9884546E-2,1.0648145E-1,-2.0859877E-2],"categories":[],"categories_nodes":[],"categories_segments":[],"categories_sizes":[],"default_left":[0,0,0,0,0,0,0,0,0],"id":16,"left_children":[1,3,-1,5,7,-1,-1,-1,-1],"loss_changes":[1.0312233E1,8.858984E0,0E0,1.9322517E1,4.8898106E0,0E0,0E0,0E0,0E0],"parents":[2147483647,0,0,1,1,3,3,4,4],"right_children":[2,4,-1,6,8,-1,-1,-1,-1],"split_conditions":[2.913098E-1,5.489725E-1,-1.1654752E-1,4.25E0,1.4878774E10,4.3454196E-2,-6.9884546E-2,1.0648145E-1,-2.0859877E-2],"split_indices":[11,23,0,22,4,0,0,0,0],"split_type":[0,0,0,0,0,0,0,0,0],"sum_hessian":[8.0130424E1,7.425629E1,5.8741407E0,5.9080605E1,1.517568E1,3.3246864E1,2.5833736E1,1.1593512E1,3.5821688E0],"tree_param":{"num_deleted":"0","num_feature":"24","num_nodes":"9","size_leaf_vector":"1"}},{"base_weights":[5.568202E-3,6.9029534E-1,-1.6284466E-1,8.954266E-1,-2.680257E-1,-1.20589755E-1,7.352802E-2,9.9246055E-2,3.6722843E-3,5.6115925E-2,-8.8640735E-2,1.959881E-2,-1.1132109E-1],"categories":[],"categories_nodes":[],"categories_segments":[],"categories_sizes":[],"default_left":[0,0,0,0,0,0,0,0,0,0,0,0,0],"id":17,"left_children":[1,3,5,7,9,-1,11,-1,-1,-1,-1,-1,-1],"loss_changes":[9.287451E0,3.3650618E0,1.603219E1,1.073803E0,2.3292127E0,0E0,8.016792E0,0E0,0E0,0E0,0E0,0E0,0E0],"parents":[2147483647,0,0,1,1,2,2,3,3,4,4,6,6],"right_children":[2,4,6,8,10,-1,12,-1,-1,-1,-1,-1,-1],"split_conditions":[-2.7854426E-2,1.5836345E-1,2.7008262E-1,6.346E10,4.129E9,-1.20589755E-1,2.659657E-1,9.9246055E-2,3.6722843E-3,5.6115925E-2,-8.8640735E-2,1.959881E-2,-1.1132109E-1],"split_indices":[23,8,23,0,0,0,11,0,0,0,0,0,0],"split_type":[0,0,0,0,0,0,0,0,0,0,0,0,0],"sum_hessian":[7.856374E1,1.489704E1,6.36667E1,1.2324564E1,2.5724764E0,1.1004581E1,5.2662117E1,1.0933327E1,1.3912377E0,1.1384586E0,1.4340178E0,4.849296E1,4.1691575E0],"tree_param":{"num_deleted":"0","num_feature":"24","num_nodes":"13","size_leaf_vector":"1"}},{"base_weights":[2.8698386E-3,1.022422E0,-1.04971424E-1,1.1134374E-1,2.9411627E-2,-1.9496691E-1,1.0278108E0,-3.167384E-2,8.630522E-2,1.2080655E-1,2.8708477E-2],"categories":[],"categories_nodes":[],"categories_segments":[],"categories_sizes":[],"default_left":[0,0,0,0,0,0,0,0,0,0,0],"id":18,"left_children":[1,3,5,-1,-1,7,9,-1,-1,-1,-1],"loss_changes":[8.68862E0,1.7356873E-1,7.4883194E0,0E0,0E0,8.914133E0,3.769846E-1,0E0,0E0,0E0,0E0],"parents":[2147483647,0,0,1,1,2,2,5,5,6,6],"right_children":[2,4,6,-1,-1,8,10,-1,-1,-1,-1],"split_conditions":[-5.29E8,7.181325E9,3.4695768E0,1.1134374E-1,2.9411627E-2,9.5391E10,2.0353112E0,-3.167384E-2,8.630522E-2,1.2080655E-1,2.8708477E-2],"split_indices":[2,0,16,0,0,6,12,0,0,0,0],"split_type":[0,0,0,0,0,0,0,0,0,0,0],"sum_hessian":[7.70474E1,6.5587654E0,7.048864E1,5.3601136E0,1.1986517E0,6.606768E1,4.4209533E0,5.9876854E1,6.1908274E0,3.0482464E0,1.3727071E0],"tree_param":{"num_deleted":"0","num_feature":"24","num_nodes":"11","size_leaf_vector":"1"}},{"base_weights":[7.375059E-3,5.8782345E-1,-1.6979286E-1,-1.2845205E-1,8.115406E-1,-1.2781157E-1,8.553781E-3,-1.4222613E-1,7.0241384E-2,9.74967E-2,-1.2961866E-2,6.690022E-2,-3.066799E-2],"categories":[],"categories_nodes":[],"categories_segments":[],"categories_sizes":[],"default_left":[0,0,0,0,0,0,0,0,0,0,0,0,0],"id":19,"left_children":[1,3,5,7,9,-1,11,-1,-1,-1,-1,-1,-1],"loss_changes":[8.05344E0,3.038381E0,1.1877141E1,6.6117477E0,2.2934523E0,0E0,1.1177912E1,0E0,0E0,0E0,0E0,0E0,0E0],"parents":[2147483647,0,0,1,1,2,2,3,3,4,4,6,6],"right_children":[2,4,6,8,10,-1,12,-1,-1,-1,-1,-1,-1],"split_conditions":[-1.31602E8,7.7102E8,2.107213E9,2.231684E9,2.37139E10,-1.2781157E-1,6.618E9,-1.4222613E-1,7.0241384E-2,9.74967E-2,-1.2961866E-2,6.690022E-2,-3.066799E-2],"split_indices":[1,6,0,3,3,0,6,0,0,0,0,0,0],"split_type":[0,0,0,0,0,0,0,0,0,0,0,0,0],"sum_hessian":[7.634225E1,1.7310532E1,5.903171E1,4.2212334E0,1.3089298E1,7.3277082E0,5.1704006E1,1.3723904E0,2.8488429E0,1.1122095E1,1.9672035E0,1.634249E1,3.5361515E1],"tree_param":{"num_deleted":"0","num_feature":"24","num_nodes":"13","size_leaf_vector":"1"}},{"base_weights":[5.7965945E-3,9.684768E-2,-1.0644298E-1,7.448671E-1,-7.300064E-2,9.8614395E-2,-1.8595679E-2,-2.6916508E-2,6.341069E-2],"categories":[],"categories_nodes":[],"categories_segments":[],"categories_sizes":[],"default_left":[0,0,0,0,0,0,0,0,0],"id":20,"left_children":[1,3,-1,5,7,-1,-1,-1,-1],"loss_changes":[7.5091863E0,7.864609E0,0E0,3.513031E0,8.095766E0,0E0,0E0,0E0,0E0],"parents":[2147483647,0,0,1,1,3,3,4,4],"right_children":[2,4,-1,6,8,-1,-1,-1,-1],"split_conditions":[2.913098E-1,1.4376613E0,-1.0644298E-1,1.6592428E-1,5.489725E-1,9.8614395E-2,-1.8595679E-2,-2.6916508E-2,6.341069E-2],"split_indices":[11,12,0,8,23,0,0,0,0],"split_type":[0,0,0,0,0,0,0,0,0],"sum_hessian":[7.500265E1,6.996018E1,5.042459E0,1.3825709E1,5.6134476E1,1.093249E1,2.893219E0,4.442854E1,1.1705937E1],"tree_param":{"num_deleted":"0","num_feature":"24","num_nodes":"9","size_leaf_vector":"1"}},{"base_weights":[5.486428E-3,6.4763546E-1,-1.4929667E-1,8.0432326E-1,-4.6376448E-2,-1.1528144E-1,6.4943306E-2,9.3777016E-2,-2.934922E-2,-1.6671475E-2,5.837659E-2],"categories":[],"categories_nodes":[],"categories_segments":[],"categories_sizes":[],"default_left":[0,0,0,0,0,0,0,0,0,0,0],"id":21,"left_children":[1,3,5,7,-1,-1,9,-1,-1,-1,-1],"loss_changes":[7.553172E0,2.9430022E0,1.3245733E1,2.2236958E0,0E0,0E0,6.278734E0,0E0,0E0,0E0,0E0],"parents":[2147483647,0,0,1,1,2,2,3,3,6,6],"right_children":[2,4,6,8,-1,-1,10,-1,-1,-1,-1],"split_conditions":[-2.7854426E-2,5.98429E10,2.7008262E-1,4.0109676E-1,-4.6376448E-2,-1.1528144E-1,6E0,9.3777016E-2,-2.934922E-2,-1.6671475E-2,5.837659E-2],"split_indices":[23,4,23,10,0,0,21,0,0,0,0],"split_type":[0,0,0,0,0,0,0,0,0,0,0],"sum_hessian":[7.401958E1,1.3757918E1,6.026166E1,1.2300116E1,1.4578023E0,9.831088E0,5.0430573E1,1.1096988E1,1.203128E0,3.5332863E1,1.5097711E1],"tree_param":{"num_deleted":"0","num_feature":"24","num_nodes":"11","size_leaf_vector":"1"}},{"base_weights":[4.106607E-3,9.609779E-1,-8.991888E-2,1.0533898E-1,2.2722626E-2,-1.924878E-1,8.253838E-1,1.8096892E-2,-5.6710757E-2,1.2786208E-1,-2.201641E-3],"categories":[],"categories_nodes":[],"categories_segments":[],"categories_sizes":[],"default_left":[0,0,0,0,0,0,0,0,0,0,0],"id":22,"left_children":[1,3,5,-1,-1,7,9,-1,-1,-1,-1],"loss_changes":[6.711257E0,2.1316719E-1,6.539073E0,0E0,0E0,8.765882E0,2.7309895E0,0E0,0E0,0E0,0E0],"parents":[2147483647,0,0,1,1,2,2,5,5,6,6],"right_children":[2,4,6,-1,-1,8,10,-1,-1,-1,-1],"split_conditions":[-5.29E8,7.181325E9,9.5391E10,1.0533898E-1,2.2722626E-2,6.956E9,-2.34367E-2,1.8096892E-2,-5.6710757E-2,1.2786208E-1,-2.201641E-3],"split_indices":[2,0,6,0,0,6,17,0,0,0,0],"split_type":[0,0,0,0,0,0,0,0,0,0,0],"sum_hessian":[7.263371E1,5.6736956E0,6.696002E1,4.6521606E0,1.0215348E0,6.0922714E1,6.0373054E0,3.076758E1,3.0155134E1,3.601922E0,2.4353836E0],"tree_param":{"num_deleted":"0","num_feature":"24","num_nodes":"11","size_leaf_vector":"1"}},{"base_weights":[6.862794E-3,6.0463357E-1,-1.34715E-1,7.5595444E-1,-4.457682E-2,-1.11542396E-1,6.202011E-2,8.821138E-2,-2.643748E-2,-7.4097104E-2,2.0594874E-2],"categories":[],"categories_nodes":[],"categories_segments":[],"categories_sizes":[],"default_left":[0,0,0,0,0,0,0,0,0,0,0],"id":23,"left_children":[1,3,5,7,-1,-1,9,-1,-1,-1,-1],"loss_changes":[6.2376504E0,2.5799694E0,1.1574202E1,1.8687134E0,0E0,0E0,6.002238E0,0E0,0E0,0E0,0E0],"parents":[2147483647,0,0,1,1,2,2,3,3,6,6],"right_children":[2,4,6,8,-1,-1,10,-1,-1,-1,-1],"split_conditions":[-2.7854426E-2,5.98429E10,2.7008262E-1,4.0109676E-1,-4.457682E-2,-1.11542396E-1,1.058468E9,8.821138E-2,-2.643748E-2,-7.4097104E-2,2.0594874E-2],"split_indices":[23,4,23,10,0,0,0,0,0,0,0],"split_type":[0,0,0,0,0,0,0,0,0,0,0],"sum_hessian":[7.174157E1,1.3111486E1,5.8630085E1,1.1705509E1,1.4059772E0,9.016062E0,4.9614025E1,1.0537993E1,1.167516E0,6.910655E0,4.270337E1],"tree_param":{"num_deleted":"0","num_feature":"24","num_nodes":"11","size_leaf_vector":"1"}},{"base_weights":[3.9802836E-3,8.669009E-2,-1.0127371E-1,7.020507E-1,-7.1914226E-2,2.2307403E-2,1.3632156E-1,-2.4681719E-2,5.3785052E-2],"categories":[],"categories_nodes":[],"categories_segments":[],"categories_sizes":[],"default_left":[0,0,0,0,0,0,0,0,0],"id":24,"left_children":[1,3,-1,5,7,-1,-1,-1,-1],"loss_changes":[6.1174397E0,6.6120095E0,0E0,4.088253E0,5.930186E0,0E0,0E0,0E0,0E0],"parents":[2147483647,0,0,1,1,3,3,4,4],"right_children":[2,4,-1,6,8,-1,-1,-1,-1],"split_conditions":[2.913098E-1,1.4376613E0,-1.0127371E-1,2.5E9,7.0423615E-1,2.2307403E-2,1.3632156E-1,-2.4681719E-2,5.3785052E-2],"split_indices":[11,12,0,2,13,0,0,0,0],"split_type":[0,0,0,0,0,0,0,0,0],"sum_hessian":[7.070254E1,6.6229515E1,4.473026E0,1.2869886E1,5.3359627E1,8.238764E0,4.631123E0,4.192828E1,1.1431347E1],"tree_param":{"num_deleted":"0","num_feature":"24","num_nodes":"9","size_leaf_vector":"1"}},{"base_weights":[4.7043897E-3,5.010428E-1,-1.5530416E-1,-2.3904908E-1,7.3536277E-1,-1.2117068E-1,2.769817E-3,-1.2843946E-1,6.0460087E-2,9.011324E-2,-1.7665189E-2,-3.708757E-2,4.6812102E-2],"categories":[],"categories_nodes":[],"categories_segments":[],"categories_sizes":[],"default_left":[0,0,0,0,0,0,0,0,0,0,0,0,0],"id":25,"left_children":[1,3,5,7,9,-1,11,-1,-1,-1,-1,-1,-1],"loss_changes":[5.7269363E0,3.2240372E0,9.113269E0,5.169827E0,2.2146668E0,0E0,8.598072E0,0E0,0E0,0E0,0E0,0E0,0E0],"parents":[2147483647,0,0,1,1,2,2,3,3,4,4,6,6],"right_children":[2,4,6,8,10,-1,12,-1,-1,-1,-1,-1,-1],"split_conditions":[-9.5368E7,6.17287E8,2.107213E9,2.231684E9,2.37139E10,-1.2117068E-1,2.658925E-1,-1.2843946E-1,6.0460087E-2,9.011324E-2,-1.7665189E-2,-3.708757E-2,4.6812102E-2],"split_indices":[1,6,0,3,3,0,17,0,0,0,0,0,0],"split_type":[0,0,0,0,0,0,0,0,0,0,0,0,0],"sum_hessian":[7.0131165E1,1.6577438E1,5.3553722E1,3.9815767E0,1.2595861E1,6.1028905E0,4.7450832E1,1.5449018E0,2.4366748E0,1.0668641E1,1.9272205E0,2.6431303E1,2.101953E1],"tree_param":{"num_deleted":"0","num_feature":"24","num_nodes":"13","size_leaf_vector":"1"}},{"base_weights":[2.8017259E-3,5.7327837E-1,-1.2972486E-1,7.57094E-1,-2.4888065E-1,-1.0820055E-1,5.003154E-2,8.462885E-2,9.941532E-3,3.7620522E-2,-7.182372E-2,-1.5487279E-2,5.1647868E-2],"categories":[],"categories_nodes":[],"categories_segments":[],"categories_sizes":[],"default_left":[0,0,0,0,0,0,0,0,0,0,0,0,0],"id":26,"left_children":[1,3,5,7,9,-1,11,-1,-1,-1,-1,-1,-1],"loss_changes":[5.360521E0,2.2082834E0,9.906171E0,5.711498E-1,1.2075144E0,0E0,4.798715E0,0E0,0E0,0E0,0E0,0E0,0E0],"parents":[2147483647,0,0,1,1,2,2,3,3,4,4,6,6],"right_children":[2,4,6,8,10,-1,12,-1,-1,-1,-1,-1,-1],"split_conditions":[-2.7854426E-2,1.5836345E-1,2.7008262E-1,3.64878E10,6.188E9,-1.0820055E-1,6E0,8.462885E-2,9.941532E-3,3.7620522E-2,-7.182372E-2,-1.5487279E-2,5.1647868E-2],"split_indices":[23,8,23,4,6,0,21,0,0,0,0,0,0],"split_type":[0,0,0,0,0,0,0,0,0,0,0,0,0],"sum_hessian":[6.891957E1,1.236541E1,5.655416E1,1.0170632E1,2.1947777E0,8.183233E0,4.837093E1,8.703484E0,1.4671488E0,1.0263534E0,1.1684242E0,3.4071655E1,1.4299274E1],"tree_param":{"num_deleted":"0","num_feature":"24","num_nodes":"13","size_leaf_vector":"1"}},{"base_weights":[2.2044186E-3,-7.8381956E-2,9.3814504E-1,-2.4846323E-1,5.1608795E-1,1.1118978E-1,1.7645288E-2,4.6748474E-2,-4.548148E-2,9.518104E-2,-3.3887625E-3],"categories":[],"categories_nodes":[],"categories_segments":[],"categories_sizes":[],"default_left":[0,0,0,0,0,0,0,0,0,0,0],"id":27,"left_children":[1,3,5,7,9,-1,-1,-1,-1,-1,-1],"loss_changes":[5.2542048E0,6.6158247E0,5.3466654E-1,7.6830645E0,3.5307178E0,0E0,0E0,0E0,0E0,0E0,0E0],"parents":[2147483647,0,0,1,1,2,2,3,3,4,4],"right_children":[2,4,6,8,10,-1,-1,-1,-1,-1,-1],"split_conditions":[3.4695768E0,5.489725E-1,2.0353112E0,-2.7854426E-2,6.5518536E-2,1.1118978E-1,1.7645288E-2,4.6748474E-2,-4.548148E-2,9.518104E-2,-3.3887625E-3],"split_indices":[16,23,12,23,9,0,0,0,0,0,0],"split_type":[0,0,0,0,0,0,0,0,0,0,0],"sum_hessian":[6.768725E1,6.316488E1,4.5223703E0,4.9565845E1,1.3599032E1,3.307996E0,1.2143742E0,1.0806529E1,3.875932E1,7.17999E0,6.419043E0],"tree_param":{"num_deleted":"0","num_feature":"24","num_nodes":"11","size_leaf_vector":"1"}},{"base_weights":[5.59485E-3,7.9881445E-2,-9.553795E-2,4.8612896E-1,-1.3067022E-1,-7.620013E-2,6.2419225E-2,-1.0476732E-1,9.798604E-3],"categories":[],"categories_nodes":[],"categories_segments":[],"categories_sizes":[],"default_left":[0,0,0,0,0,0,0,0,0],"id":28,"left_children":[1,3,-1,5,7,-1,-1,-1,-1],"loss_changes":[4.8954763E0,5.5024047E0,0E0,4.2525015E0,9.04926E0,0E0,0E0,0E0,0E0],"parents":[2147483647,0,0,1,1,3,3,4,4],"right_children":[2,4,-1,6,8,-1,-1,-1,-1],"split_conditions":[2.913098E-1,3.0442587E-1,-9.553795E-2,1.016E9,3.5548654E-1,-7.620013E-2,6.2419225E-2,-1.0476732E-1,9.798604E-3],"split_indices":[11,13,0,0,13,0,0,0,0],"split_type":[0,0,0,0,0,0,0,0,0],"sum_hessian":[6.6507034E1,6.2585815E1,3.9212222E0,2.091762E1,4.1668198E1,1.6332624E0,1.9284357E1,7.6014547E0,3.4066742E1],"tree_param":{"num_deleted":"0","num_feature":"24","num_nodes":"9","size_leaf_vector":"1"}},{"base_weights":[1.6147759E-3,8.8539116E-2,-8.01195E-2,-1.812815E-1,7.803498E-1,1.4370945E-2,-5.1122855E-2,1.21438794E-1,-1.7784713E-3],"categories":[],"categories_nodes":[],"categories_segments":[],"categories_sizes":[],"default_left":[0,0,0,0,0,0,0,0,0],"id":29,"left_children":[1,-1,3,5,7,-1,-1,-1,-1],"loss_changes":[4.88971E0,0E0,5.5365887E0,6.10739E0,2.3456182E0,0E0,0E0,0E0,0E0],"parents":[2147483647,0,0,2,2,3,3,4,4],"right_children":[2,-1,4,6,8,-1,-1,-1,-1],"split_conditions":[-5.29E8,8.8539116E-2,9.5391E10,6.956E9,-2.34367E-2,1.4370945E-2,-5.1122855E-2,1.21438794E-1,-1.7784713E-3],"split_indices":[2,0,6,6,17,0,0,0,0],"split_type":[0,0,0,0,0,0,0,0,0],"sum_hessian":[6.570983E1,4.7302313E0,6.09796E1,5.5270935E1,5.708665E0,2.8128952E1,2.7141983E1,3.3599424E0,2.3487222E0],"tree_param":{"num_deleted":"0","num_feature":"24","num_nodes":"9","size_leaf_vector":"1"}},{"base_weights":[4.2275684E-3,-8.847673E-2,7.522339E-1,3.1656083E-1,-3.29382E-1,1.026289E0,-2.5819683E-2,6.4255195E-3,1.5107755E-1,-9.901303E-2,8.201248E-3,1.2001111E-1,1.49527285E-2],"categories":[],"categories_nodes":[],"categories_segments":[],"categories_sizes":[],"default_left":[0,0,0,0,0,0,0,0,0,0,0,0,0],"id":30,"left_children":[1,3,5,7,9,11,-1,-1,-1,-1,-1,-1,-1],"loss_changes":[4.6384335E0,5.9154477E0,2.3073287E0,6.7490025E0,1.0365642E1,7.3538065E-1,0E0,0E0,0E0,0E0,0E0,0E0,0E0],"parents":[2147483647,0,0,1,1,2,2,3,3,4,4,5,5],"right_children":[2,4,6,8,10,12,-1,-1,-1,-1,-1,-1,-1],"split_conditions":[3.1258287E0,-7.7468734E-3,2E0,-4.9332503E-2,1.9208623E-1,2.9771E10,-2.5819683E-2,6.4255195E-3,1.5107755E-1,-9.901303E-2,8.201248E-3,1.2001111E-1,1.49527285E-2],"split_indices":[16,17,21,17,17,0,0,0,0,0,0,0,0],"split_type":[0,0,0,0,0,0,0,0,0,0,0,0,0],"sum_hessian":[6.493098E1,5.8555595E1,6.3753815E0,2.1721266E1,3.6834328E1,5.002798E0,1.3725836E0,1.8802586E1,2.9186788E0,1.3593995E1,2.3240334E1,3.86729E0,1.135508E0],"tree_param":{"num_deleted":"0","num_feature":"24","num_nodes":"13","size_leaf_vector":"1"}},{"base_weights":[6.294328E-3,8.5401155E-2,-7.1168005E-2,-3.2161853E-1,2.3171353E-1,5.6433314E-3,-1.16944216E-1,8.1546985E-2,-1.8859463E-2],"categories":[],"categories_nodes":[],"categories_segments":[],"categories_sizes":[],"default_left":[0,0,0,0,0,0,0,0,0],"id":31,"left_children":[1,-1,3,5,7,-1,-1,-1,-1],"loss_changes":[4.342378E0,0E0,4.676486E0,1.0843906E1,7.0336723E0,0E0,0E0,0E0,0E0],"parents":[2147483647,0,0,2,2,3,3,4,4],"right_children":[2,-1,4,6,8,-1,-1,-1,-1],"split_conditions":[-5.29E8,8.5401155E-2,2.5371E10,2.37139E10,8.566913E-2,5.6433314E-3,-1.16944216E-1,8.1546985E-2,-1.8859463E-2],"split_indices":[2,0,0,3,18,0,0,0,0],"split_type":[0,0,0,0,0,0,0,0,0],"sum_hessian":[6.420254E1,4.5361238E0,5.9666412E1,3.2626194E1,2.704022E1,2.3210064E1,9.416129E0,1.0925657E1,1.6114565E1],"tree_param":{"num_deleted":"0","num_feature":"24","num_nodes":"9","size_leaf_vector":"1"}},{"base_weights":[5.9110797E-3,6.141866E-1,-9.720385E-2,-5.2845336E-2,8.6810005E-1,-3.6756352E-1,2.3784809E-1,1.4005576E-2,9.535541E-2,1.33494055E-2,-1.2407142E-1,-7.118221E-2,4.137147E-2],"categories":[],"categories_nodes":[],"categories_segments":[],"categories_sizes":[],"default_left":[0,0,0,0,0,0,0,0,0,0,0,0,0],"id":32,"left_children":[1,3,5,-1,7,9,11,-1,-1,-1,-1,-1,-1],"loss_changes":[4.0896373E0,3.2003913E0,5.142116E0,0E0,3.710041E-1,1.3848238E1,4.557755E0,0E0,0E0,0E0,0E0,0E0,0E0],"parents":[2147483647,0,0,1,1,2,2,4,4,5,5,6,6],"right_children":[2,4,6,-1,8,10,12,-1,-1,-1,-1,-1,-1],"split_conditions":[-3.6547327E-1,6.17287E8,2.658925E-1,-5.2845336E-2,2.49659E8,5.3621825E-2,1.865E9,1.4005576E-2,9.535541E-2,1.33494055E-2,-1.2407142E-1,-7.118221E-2,4.137147E-2],"split_indices":[8,6,17,0,0,17,0,0,0,0,0,0,0],"split_type":[0,0,0,0,0,0,0,0,0,0,0,0,0],"sum_hessian":[6.325046E1,8.449643E0,5.480082E1,1.3396827E0,7.1099606E0,3.0274626E1,2.4526194E1,1.0240761E0,6.0858846E0,1.9774271E1,1.0500354E1,3.3560717E0,2.1170122E1],"tree_param":{"num_deleted":"0","num_feature":"24","num_nodes":"13","size_leaf_vector":"1"}},{"base_weights":[3.6888781E-3,6.963565E-1,-8.3835304E-2,8.5254025E-1,-4.183914E-3,-1.9056766E-1,6.9218963E-1,1.0405477E-2,9.910844E-2,-4.3504145E-2,2.0673191E-2,9.5385246E-2,-2.5216386E-2],"categories":[],"categories_nodes":[],"categories_segments":[],"categories_sizes":[],"default_left":[0,0,0,0,0,0,0,0,0,0,0,0,0],"id":33,"left_children":[1,3,5,7,-1,9,11,-1,-1,-1,-1,-1,-1],"loss_changes":[3.884189E0,8.642733E-1,4.8463454E0,5.168457E-1,0E0,5.0261717E0,1.9944205E0,0E0,0E0,0E0,0E0,0E0,0E0],"parents":[2147483647,0,0,1,1,2,2,3,3,5,5,6,6],"right_children":[2,4,6,8,-1,10,12,-1,-1,-1,-1,-1,-1],"split_conditions":[-1.14098646E-1,6.2067732E-2,3.1258287E0,-5.7470277E-2,-4.183914E-3,5.02E0,2E0,1.0405477E-2,9.910844E-2,-4.3504145E-2,2.0673191E-2,9.5385246E-2,-2.5216386E-2],"split_indices":[16,8,16,18,0,22,21,0,0,0,0,0,0],"split_type":[0,0,0,0,0,0,0,0,0,0,0,0,0],"sum_hessian":[6.210597E1,6.186866E0,5.59191E1,4.978617E0,1.2082486E0,4.9821255E1,6.097848E0,1.0511004E0,3.927517E0,3.0783796E1,1.9037458E1,4.766955E0,1.3308929E0],"tree_param":{"num_deleted":"0","num_feature":"24","num_nodes":"13","size_leaf_vector":"1"}},{"base_weights":[6.037501E-3,1.6071683E-1,-3.7270135E-1,2.822396E-1,-1.03593506E-1,-1.14824705E-1,1.0564899E-1,9.2174386E-4,9.262999E-2,-4.669952E-2,7.2016634E-2],"categories":[],"categories_nodes":[],"categories_segments":[],"categories_sizes":[],"default_left":[0,0,0,0,0,0,0,0,0,0,0],"id":34,"left_children":[1,3,5,7,-1,-1,9,-1,-1,-1,-1],"loss_changes":[3.716945E0,6.839475E0,6.948551E0,7.3165665E0,0E0,0E0,4.6640635E0,0E0,0E0,0E0,0E0],"parents":[2147483647,0,0,1,1,2,2,3,3,6,6],"right_children":[2,4,6,8,-1,-1,10,-1,-1,-1,-1],"split_conditions":[1.73171E-1,8.2006E10,2.400665E-1,3.132E9,-1.03593506E-1,-1.14824705E-1,1.31107E11,9.2174386E-4,9.262999E-2,-4.669952E-2,7.2016634E-2],"split_indices":[8,0,8,1,0,0,3,0,0,0,0],"split_type":[0,0,0,0,0,0,0,0,0,0,0],"sum_hessian":[6.1424953E1,4.402182E1,1.7403135E1,4.0657135E1,3.3646839E0,6.104892E0,1.12982435E1,2.9265553E1,1.13915825E1,5.9726405E0,5.325603E0],"tree_param":{"num_deleted":"0","num_feature":"24","num_nodes":"11","size_leaf_vector":"1"}},{"base_weights":[3.5564208E-3,4.322028E-1,-1.3058764E-1,-2.2785176E-1,6.614699E-1,-1.12976514E-1,1.2332377E-2,-1.1391389E-1,5.9838783E-2,9.2278086E-2,1.2952829E-2,-2.9915363E-2,3.688242E-2],"categories":[],"categories_nodes":[],"categories_segments":[],"categories_sizes":[],"default_left":[0,0,0,0,0,0,0,0,0,0,0,0,0],"id":35,"left_children":[1,3,5,7,9,-1,11,-1,-1,-1,-1,-1,-1],"loss_changes":[3.5928009E0,2.404192E0,6.812799E0,4.132194E0,1.4523787E0,0E0,4.8453546E0,0E0,0E0,0E0,0E0,0E0,0E0],"parents":[2147483647,0,0,1,1,2,2,3,3,4,4,6,6],"right_children":[2,4,6,8,10,-1,12,-1,-1,-1,-1,-1,-1],"split_conditions":[-9.5368E7,6.17287E8,2.107213E9,2.231684E9,-3.6547327E-1,-1.12976514E-1,2.658925E-1,-1.1391389E-1,5.9838783E-2,9.2278086E-2,1.2952829E-2,-2.9915363E-2,3.688242E-2],"split_indices":[1,6,0,3,8,0,17,0,0,0,0,0,0],"split_type":[0,0,0,0,0,0,0,0,0,0,0,0,0],"sum_hessian":[6.0501534E1,1.389125E1,4.6610283E1,3.5827556E0,1.0308495E1,4.9686623E0,4.164162E1,1.5236111E0,2.0591445E0,6.419996E0,3.8884988E0,2.2309475E1,1.9332144E1],"tree_param":{"num_deleted":"0","num_feature":"24","num_nodes":"13","size_leaf_vector":"1"}},{"base_weights":[2.3410693E-3,5.0541526E-1,-1.11223824E-1,6.683335E-1,-2.161539E-2,-1.0007732E-1,3.5807643E-2,7.2561555E-2,1.4584638E-2,4.466374E-2,-1.7098978E-2],"categories":[],"categories_nodes":[],"categories_segments":[],"categories_sizes":[],"default_left":[0,0,0,0,0,0,0,0,0,0,0],"id":36,"left_children":[1,3,5,7,-1,-1,9,-1,-1,-1,-1],"loss_changes":[3.5151956E0,1.4764555E0,6.603347E0,1.7813873E-1,0E0,0E0,3.8193488E0,0E0,0E0,0E0,0E0],"parents":[2147483647,0,0,1,1,2,2,3,3,6,6],"right_children":[2,4,6,8,-1,-1,10,-1,-1,-1,-1],"split_conditions":[-2.7854426E-2,1.5836345E-1,2.7008262E-1,3.64878E10,-2.161539E-2,-1.0007732E-1,1.6137146E0,7.2561555E-2,1.4584638E-2,4.466374E-2,-1.7098978E-2],"split_indices":[23,8,23,4,0,0,12,0,0,0,0],"split_type":[0,0,0,0,0,0,0,0,0,0,0],"sum_hessian":[5.9544136E1,1.0330635E1,4.9213505E1,8.487971E0,1.8426635E0,6.1569653E0,4.3056538E1,7.2989855E0,1.1889857E0,1.40281105E1,2.9028427E1],"tree_param":{"num_deleted":"0","num_feature":"24","num_nodes":"11","size_leaf_vector":"1"}},{"base_weights":[1.836847E-3,6.494495E-2,-8.728433E-2,5.845114E-1,-6.808746E-2,1.2834947E-2,1.1105341E-1,-2.2657951E-2,4.7418416E-2],"categories":[],"categories_nodes":[],"categories_segments":[],"categories_sizes":[],"default_left":[0,0,0,0,0,0,0,0,0],"id":37,"left_children":[1,3,-1,5,7,-1,-1,-1,-1],"loss_changes":[3.3552463E0,3.9565444E0,0E0,2.6542964E0,4.061868E0,0E0,0E0,0E0,0E0],"parents":[2147483647,0,0,1,1,3,3,4,4],"right_children":[2,4,-1,6,8,-1,-1,-1,-1],"split_conditions":[2.913098E-1,1.4376613E0,-8.728433E-2,2.5E9,7.0423615E-1,1.2834947E-2,1.1105341E-1,-2.2657951E-2,4.7418416E-2],"split_indices":[11,12,0,2,13,0,0,0,0],"split_type":[0,0,0,0,0,0,0,0,0],"sum_hessian":[5.8757156E1,5.566657E1,3.0905886E0,1.0655825E1,4.5010746E1,6.3731165E0,4.2827077E0,3.528114E1,9.729605E0],"tree_param":{"num_deleted":"0","num_feature":"24","num_nodes":"9","size_leaf_vector":"1"}},{"base_weights":[2.6870712E-3,-1.18985705E-1,4.4400525E-1,9.475426E-2,-8.755327E-1,-8.679486E-3,9.315281E-2,4.3349363E-2,-3.9424684E-2,4.715994E-2,-1.15475036E-1,-7.89744E-2,6.5261535E-2],"categories":[],"categories_nodes":[],"categories_segments":[],"categories_sizes":[],"default_left":[0,0,0,0,0,0,0,0,0,0,0,0,0],"id":38,"left_children":[1,3,5,7,9,11,-1,-1,-1,-1,-1,-1,-1],"loss_changes":[3.235805E0,7.7242947E0,2.8820205E0,6.4235883E0,4.4968023E0,4.5148473E0,0E0,0E0,0E0,0E0,0E0,0E0,0E0],"parents":[2147483647,0,0,1,1,2,2,3,3,4,4,5,5],"right_children":[2,4,6,8,10,12,-1,-1,-1,-1,-1,-1,-1],"split_conditions":[5.489725E-1,3.0238038E-1,5E0,4.25E0,-2.8759924E-1,1.4665355E-1,9.315281E-2,4.3349363E-2,-3.9424684E-2,4.715994E-2,-1.15475036E-1,-7.89744E-2,6.5261535E-2],"split_indices":[23,23,21,22,16,16,0,0,0,0,0,0,0],"split_type":[0,0,0,0,0,0,0,0,0,0,0,0,0],"sum_hessian":[5.8277237E1,4.6254982E1,1.2022255E1,3.6747746E1,9.507235E0,6.743157E0,5.279098E0,2.1776386E1,1.4971359E1,1.513946E0,7.993288E0,3.0025563E0,3.7406003E0],"tree_param":{"num_deleted":"0","num_feature":"24","num_nodes":"13","size_leaf_vector":"1"}},{"base_weights":[2.4829276E-3,7.654291E-2,-6.426989E-2,-1.5792243E-1,6.9721675E-1,2.8763676E-2,-3.7929706E-2,1.0530408E-1,3.3074156E-3],"categories":[],"categories_nodes":[],"categories_segments":[],"categories_sizes":[],"default_left":[0,0,0,0,0,0,0,0,0],"id":39,"left_children":[1,-1,3,5,7,-1,-1,-1,-1],"loss_changes":[2.9917111E0,0E0,3.9647758E0,4.937009E0,1.4077072E0,0E0,0E0,0E0,0E0],"parents":[2147483647,0,0,2,2,3,3,4,4],"right_children":[2,-1,4,6,8,-1,-1,-1,-1],"split_conditions":[-5.29E8,7.654291E-2,9.5391E10,1.6137146E0,-2.34367E-2,2.8763676E-2,-3.7929706E-2,1.0530408E-1,3.3074156E-3],"split_indices":[2,0,6,12,17,0,0,0,0],"split_type":[0,0,0,0,0,0,0,0,0],"sum_hessian":[5.6777065E1,3.7258728E0,5.3051193E1,4.7946976E1,5.104216E0,1.5815634E1,3.2131344E1,2.9422815E0,2.1619344E0],"tree_param":{"num_deleted":"0","num_feature":"24","num_nodes":"9","size_leaf_vector":"1"}},{"base_weights":[5.5358885E-3,6.341479E-2,-8.3498344E-2,5.2787465E-1,-5.434751E-2,8.20031E-3,1.0371137E-1,-2.0218348E-2,4.5051087E-2],"categories":[],"categories_nodes":[],"categories_segments":[],"categories_sizes":[],"default_left":[0,0,0,0,0,0,0,0,0],"id":40,"left_children":[1,3,-1,5,7,-1,-1,-1,-1],"loss_changes":[2.841888E0,3.013145E0,0E0,2.4420254E0,3.4075325E0,0E0,0E0,0E0,0E0],"parents":[2147483647,0,0,1,1,3,3,4,4],"right_children":[2,4,-1,6,8,-1,-1,-1,-1],"split_conditions":[2.913098E-1,1.4376613E0,-8.3498344E-2,2.5E9,7.0423615E-1,8.20031E-3,1.0371137E-1,-2.0218348E-2,4.5051087E-2],"split_indices":[11,12,0,2,13,0,0,0,0],"split_type":[0,0,0,0,0,0,0,0,0],"sum_hessian":[5.632853E1,5.356458E1,2.7639515E0,1.0129769E1,4.343481E1,6.019948E0,4.1098213E0,3.4060513E1,9.374299E0],"tree_param":{"num_deleted":"0","num_feature":"24","num_nodes":"9","size_leaf_vector":"1"}},{"base_weights":[5.956641E-3,6.320257E-1,-7.04963E-2,8.959051E-2,5.8682915E-2,-3.2520524E-1,2.0285425E-1,3.1032294E-2,-2.187979E-2,1.0520614E-2,-9.677828E-2,4.7504023E-2,-4.9899366E-2],"categories":[],"categories_nodes":[],"categories_segments":[],"categories_sizes":[],"default_left":[0,0,0,0,0,0,0,0,0,0,0,0,0],"id":41,"left_children":[1,3,5,-1,7,9,11,-1,-1,-1,-1,-1,-1],"loss_changes":[2.7676287E0,8.9929986E-1,3.6585634E0,0E0,2.810816E-1,7.595442E0,5.109292E0,0E0,0E0,0E0,0E0,0E0,0E0],"parents":[2147483647,0,0,1,1,2,2,4,4,5,5,6,6],"right_children":[2,4,6,-1,8,10,12,-1,-1,-1,-1,-1,-1],"split_conditions":[-4.26458E8,2.4908E9,2.5371E10,8.959051E-2,1.3157041E0,1.5189E10,8.2006E10,3.1032294E-2,-2.187979E-2,1.0520614E-2,-9.677828E-2,4.7504023E-2,-4.9899366E-2],"split_indices":[1,0,0,0,12,3,0,0,0,0,0,0,0],"split_type":[0,0,0,0,0,0,0,0,0,0,0,0,0],"sum_hessian":[5.5890907E1,5.2915797E0,5.059933E1,3.2384796E0,2.0531E0,2.6094597E1,2.4504734E1,1.0146148E0,1.0384854E0,1.6128008E1,9.966589E0,1.7889936E1,6.6147976E0],"tree_param":{"num_deleted":"0","num_feature":"24","num_nodes":"13","size_leaf_vector":"1"}},{"base_weights":[5.3663584E-3,-5.9995156E-2,7.5653034E-1,4.2073607E-2,-8.214685E-1,9.060256E-2,1.2014284E-2,-1.5654443E-2,4.4271488E-2,2.8055608E-2,-1.1249288E-1],"categories":[],"categories_nodes":[],"categories_segments":[],"categories_sizes":[],"default_left":[0,0,0,0,0,0,0,0,0,0,0],"id":42,"left_children":[1,3,5,7,9,-1,-1,-1,-1,-1,-1],"loss_changes":[2.7920973E0,4.1066513E0,3.2418513E-1,3.8213387E0,2.402862E0,0E0,0E0,0E0,0E0,0E0,0E0],"parents":[2147483647,0,0,1,1,2,2,3,3,4,4],"right_children":[2,4,6,8,10,-1,-1,-1,-1,-1,-1],"split_conditions":[3.4695768E0,1.8241222E0,2.0353112E0,2.580645E-1,3.2412853E-2,9.060256E-2,1.2014284E-2,-1.5654443E-2,4.4271488E-2,2.8055608E-2,-1.1249288E-1],"split_indices":[16,17,12,17,16,0,0,0,0,0,0],"split_type":[0,0,0,0,0,0,0,0,0,0,0],"sum_hessian":[5.4944298E1,5.1392574E1,3.5517247E0,4.6151165E1,5.241409E0,2.5329924E0,1.0187323E0,3.126219E1,1.4888974E1,1.1479766E0,4.093432E0],"tree_param":{"num_deleted":"0","num_feature":"24","num_nodes":"11","size_leaf_vector":"1"}},{"base_weights":[5.627968E-3,-1.0798666E-1,4.197076E-1,8.688557E-2,-8.33891E-1,-1.5326503E-2,8.974454E-2,3.9443236E-2,-3.549455E-2,4.485646E-2,-1.117875E-1,-7.430005E-2,5.8592465E-2],"categories":[],"categories_nodes":[],"categories_segments":[],"categories_sizes":[],"default_left":[0,0,0,0,0,0,0,0,0,0,0,0,0],"id":43,"left_children":[1,3,5,7,9,11,-1,-1,-1,-1,-1,-1,-1],"loss_changes":[2.6547306E0,6.3417587E0,2.5382106E0,5.0107574E0,3.951838E0,3.6469846E0,0E0,0E0,0E0,0E0,0E0,0E0,0E0],"parents":[2147483647,0,0,1,1,2,2,3,3,4,4,5,5],"right_children":[2,4,6,8,10,12,-1,-1,-1,-1,-1,-1,-1],"split_conditions":[5.489725E-1,3.0238038E-1,5E0,4.25E0,-2.8759924E-1,1.4665355E-1,8.974454E-2,3.9443236E-2,-3.549455E-2,4.485646E-2,-1.117875E-1,-7.430005E-2,5.8592465E-2],"split_indices":[23,23,21,22,16,16,0,0,0,0,0,0,0],"split_type":[0,0,0,0,0,0,0,0,0,0,0,0,0],"sum_hessian":[5.446562E1,4.3319016E1,1.1146603E1,3.4845024E1,8.473994E0,6.3406477E0,4.805955E0,2.0607777E1,1.4237246E1,1.4312061E0,7.0427876E0,2.7620609E0,3.5785866E0],"tree_param":{"num_deleted":"0","num_feature":"24","num_nodes":"13","size_leaf_vector":"1"}},{"base_weights":[5.155407E-3,6.7089033E-1,-6.371881E-2,1.8074077E-1,9.799794E-2,5.1430464E-2,-1.02667175E-1,3.1236565E-2,-3.7622962E-3,5.484559E-2,-1.6718635E-2],"categories":[],"categories_nodes":[],"categories_segments":[],"categories_sizes":[],"default_left":[0,0,0,0,0,0,0,0,0,0,0],"id":44,"left_children":[1,3,5,7,-1,9,-1,-1,-1,-1,-1],"loss_changes":[2.524269E0,6.0474634E-1,5.592468E0,1.0435899E-1,0E0,5.0438604E0,0E0,0E0,0E0,0E0,0E0],"parents":[2147483647,0,0,1,1,2,2,3,3,5,5],"right_children":[2,4,6,8,-1,10,-1,-1,-1,-1,-1],"split_conditions":[4.094718E-2,7.4914E10,7.9474E10,4.3004E10,9.799794E-2,1.6137146E0,-1.02667175E-1,3.1236565E-2,-3.7622962E-3,5.484559E-2,-1.6718635E-2],"split_indices":[11,4,0,0,0,12,0,0,0,0,0],"split_type":[0,0,0,0,0,0,0,0,0,0,0],"sum_hessian":[5.312026E1,4.1608524E0,4.8959408E1,2.2219944E0,1.9388579E0,4.457567E1,4.383738E0,1.1177536E0,1.1042407E0,1.3156227E1,3.1419443E1],"tree_param":{"num_deleted":"0","num_feature":"24","num_nodes":"11","size_leaf_vector":"1"}},{"base_weights":[5.702921E-3,5.2392596E-1,-7.933177E-2,-5.16898E-2,7.818705E-1,-3.505426E-1,1.838575E-1,9.013854E-2,1.9463904E-2,-1.500154E-3,-1.05294935E-1,6.305876E-2,-1.882174E-2],"categories":[],"categories_nodes":[],"categories_segments":[],"categories_sizes":[],"default_left":[0,0,0,0,0,0,0,0,0,0,0,0,0],"id":45,"left_children":[1,3,5,-1,7,9,11,-1,-1,-1,-1,-1,-1],"loss_changes":[2.4041944E0,2.468443E0,3.41399E0,0E0,2.8494644E-1,5.5121474E0,4.1861753E0,0E0,0E0,0E0,0E0,0E0,0E0],"parents":[2147483647,0,0,1,1,2,2,4,4,5,5,6,6],"right_children":[2,4,6,-1,8,10,12,-1,-1,-1,-1,-1,-1],"split_conditions":[-3.6547327E-1,6.17287E8,2.5371E10,-5.16898E-2,-1.28367E8,2.254195E10,8.566913E-2,9.013854E-2,1.9463904E-2,-1.500154E-3,-1.05294935E-1,6.305876E-2,-1.882174E-2],"split_indices":[8,6,0,0,2,3,18,0,0,0,0,0,0],"split_type":[0,0,0,0,0,0,0,0,0,0,0,0,0],"sum_hessian":[5.2614586E1,6.688972E0,4.5925613E1,1.1290929E0,5.559879E0,2.2454666E1,2.347095E1,4.1751637E0,1.3847152E0,1.5886846E1,6.56782E0,1.0349766E1,1.3121184E1],"tree_param":{"num_deleted":"0","num_feature":"24","num_nodes":"13","size_leaf_vector":"1"}},{"base_weights":[4.9617514E-3,-5.874742E-2,6.8901277E-1,1.3216849E-1,-4.4935077E-1,8.859954E-2,5.8719604E-3,2.820088E-2,-8.696554E-2,4.232759E-2,-8.5251495E-2],"categories":[],"categories_nodes":[],"categories_segments":[],"categories_sizes":[],"default_left":[0,0,0,0,0,0,0,0,0,0,0],"id":46,"left_children":[1,3,5,7,9,-1,-1,-1,-1,-1,-1],"loss_changes":[2.3406587E0,3.7287111E0,5.16047E-1,5.3225927E0,6.12405E0,0E0,0E0,0E0,0E0,0E0,0E0],"parents":[2147483647,0,0,1,1,2,2,3,3,4,4],"right_children":[2,4,6,8,10,-1,-1,-1,-1,-1,-1],"split_conditions":[7.63602E-1,1.7772543E0,6.48E8,6.3046E10,7.55746E-2,8.859954E-2,5.8719604E-3,2.820088E-2,-8.696554E-2,4.232759E-2,-8.5251495E-2],"split_indices":[13,12,1,4,11,0,0,0,0,0,0],"split_type":[0,0,0,0,0,0,0,0,0,0,0],"sum_hessian":[5.1780262E1,4.820482E1,3.575443E0,3.282333E1,1.5381489E1,2.415005E0,1.1604382E0,2.9177786E1,3.6455448E0,4.8449583E0,1.05365305E1],"tree_param":{"num_deleted":"0","num_feature":"24","num_nodes":"11","size_leaf_vector":"1"}},{"base_weights":[4.236621E-3,-5.6821175E-2,7.096333E-1,-2.7208313E-1,2.6537874E-1,2.0162424E-2,8.340787E-2,2.4026914E-2,-6.1995514E-2,-9.721105E-3,5.9120953E-2],"categories":[],"categories_nodes":[],"categories_segments":[],"categories_sizes":[],"default_left":[0,0,0,0,0,0,0,0,0,0,0],"id":47,"left_children":[1,3,5,7,9,-1,-1,-1,-1,-1,-1],"loss_changes":[2.2879918E0,3.467598E0,9.933925E-2,5.4677014E0,2.4337392E0,0E0,0E0,0E0,0E0,0E0,0E0],"parents":[2147483647,0,0,1,1,2,2,3,3,4,4],"right_children":[2,4,6,8,10,-1,-1,-1,-1,-1,-1],"split_conditions":[3.4695768E0,5.02E0,5.677E9,-2.9434588E-2,6E0,2.0162424E-2,8.340787E-2,2.4026914E-2,-6.1995514E-2,-9.721105E-3,5.9120953E-2],"split_indices":[16,22,4,17,21,0,0,0,0,0,0],"split_type":[0,0,0,0,0,0,0,0,0,0,0],"sum_hessian":[5.1186474E1,4.795503E1,3.2314482E0,2.884153E1,1.9113499E1,1.1514008E0,2.0800474E0,1.1788511E1,1.7053019E1,9.378549E0,9.73495E0],"tree_param":{"num_deleted":"0","num_feature":"24","num_nodes":"11","size_leaf_vector":"1"}},{"base_weights":[6.1115245E-3,4.439857E-1,-9.5549084E-2,5.8547693E-1,-1.7276844E-2,-9.296433E-2,3.2359336E-2,6.816549E-2,2.4661025E-2,-6.308409E-2,1.5420965E-2],"categories":[],"categories_nodes":[],"categories_segments":[],"categories_sizes":[],"default_left":[0,0,0,0,0,0,0,0,0,0,0],"id":48,"left_children":[1,3,5,7,-1,-1,9,-1,-1,-1,-1],"loss_changes":[2.3329625E0,9.62685E-1,4.5732074E0,1.01043224E-1,0E0,0E0,3.1590433E0,0E0,0E0,0E0,0E0],"parents":[2147483647,0,0,1,1,2,2,3,3,6,6],"right_children":[2,4,6,8,-1,-1,10,-1,-1,-1,-1],"split_conditions":[-2.7854426E-2,1.5836345E-1,2.7008262E-1,4.5040694E-1,-1.7276844E-2,-9.296433E-2,1.058468E9,6.816549E-2,2.4661025E-2,-6.308409E-2,1.5420965E-2],"split_indices":[23,8,23,13,0,0,0,0,0,0,0],"split_type":[0,0,0,0,0,0,0,0,0,0,0],"sum_hessian":[5.045598E1,8.872571E0,4.158341E1,7.2581677E0,1.6144034E0,4.695552E0,3.6887856E1,4.865623E0,2.3925447E0,5.077133E0,3.1810724E1],"tree_param":{"num_deleted":"0","num_feature":"24","num_nodes":"11","size_leaf_vector":"1"}},{"base_weights":[4.105031E-3,-9.052847E-2,4.6442577E-1,1.2217923E-1,-7.678767E-1,-1.6441214E-1,8.0524987E-1,2.554811E-2,-8.311844E-2,5.6147855E-2,-9.744277E-2,6.672876E-2,-8.7338105E-2,1.01309694E-1,2.013637E-2],"categories":[],"categories_nodes":[],"categories_segments":[],"categories_sizes":[],"default_left":[0,0,0,0,0,0,0,0,0,0,0,0,0,0,0],"id":49,"left_children":[1,3,5,7,9,11,13,-1,-1,-1,-1,-1,-1,-1,-1],"loss_changes":[2.2579596E0,6.293592E0,2.0264626E0,4.4836855E0,3.4084873E0,2.9040666E0,5.3663754E-1,0E0,0E0,0E0,0E0,0E0,0E0,0E0,0E0],"parents":[2147483647,0,0,1,1,2,2,3,3,4,4,5,5,6,6],"right_children":[2,4,6,8,10,12,14,-1,-1,-1,-1,-1,-1,-1,-1],"split_conditions":[3.381076E0,1.7772543E0,2.1472916E-1,6.3046E10,-4.394E8,-5.083829E-1,2.0788288E-1,2.554811E-2,-8.311844E-2,5.6147855E-2,-9.744277E-2,6.672876E-2,-8.7338105E-2,1.01309694E-1,2.013637E-2],"split_indices":[12,12,18,4,1,8,16,0,0,0,0,0,0,0,0],"split_type":[0,0,0,0,0,0,0,0,0,0,0,0,0,0,0],"sum_hessian":[4.9868366E1,4.203092E1,7.83745E0,3.2610012E1,9.420904E0,2.936697E0,4.9007525E0,2.9251947E1,3.3580647E0,1.0358506E0,8.385054E0,1.3784328E0,1.5582644E0,3.1417785E0,1.7589743E0],"tree_param":{"num_deleted":"0","num_feature":"24","num_nodes":"15","size_leaf_vector":"1"}},{"base_weights":[3.6063774E-3,5.046327E-1,-7.883718E-2,-4.642582E-2,7.5269854E-1,-3.0968073E-1,1.8958893E-1,8.7503865E-2,1.7162137E-2,1.0236791E-2,-1.1108869E-1,4.390129E-2,-3.0797351E-2],"categories":[],"categories_nodes":[],"categories_segments":[],"categories_sizes":[],"default_left":[0,0,0,0,0,0,0,0,0,0,0,0,0],"id":50,"left_children":[1,3,5,-1,7,9,11,-1,-1,-1,-1,-1,-1],"loss_changes":[2.105509E0,2.0803041E0,2.7732735E0,0E0,2.845328E-1,8.014784E0,2.725952E0,0E0,0E0,0E0,0E0,0E0,0E0],"parents":[2147483647,0,0,1,1,2,2,4,4,5,5,6,6],"right_children":[2,4,6,-1,8,10,12,-1,-1,-1,-1,-1,-1],"split_conditions":[-3.6547327E-1,6.17287E8,2.658925E-1,-4.642582E-2,-1.28367E8,5.3621825E-2,1.8241222E0,8.7503865E-2,1.7162137E-2,1.0236791E-2,-1.1108869E-1,4.390129E-2,-3.0797351E-2],"split_indices":[8,6,17,0,2,17,17,0,0,0,0,0,0],"split_type":[0,0,0,0,0,0,0,0,0,0,0,0,0],"sum_hessian":[4.900982E1,6.2014422E0,4.2808376E1,1.086459E0,5.114983E0,2.293276E1,1.9875616E1,3.807468E0,1.3075151E0,1.5720283E1,7.2124786E0,1.331739E1,6.5582256E0],"tree_param":{"num_deleted":"0","num_feature":"24","num_nodes":"13","size_leaf_vector":"1"}},{"base_weights":[2.4176245E-3,-5.9202954E-2,6.979183E-1,2.852702E-2,-7.285936E-1,1.9397274E-2,8.141385E-2,-1.46538215E-2,3.6408696E-2,2.5013361E-2,-1.01750754E-1],"categories":[],"categories_nodes":[],"categories_segments":[],"categories_sizes":[],"default_left":[0,0,0,0,0,0,0,0,0,0,0],"id":51,"left_children":[1,3,5,7,9,-1,-1,-1,-1,-1,-1],"loss_changes":[2.1459098E0,2.7240536E0,8.074212E-2,2.5007005E0,1.7734218E0,0E0,0E0,0E0,0E0,0E0,0E0],"parents":[2147483647,0,0,1,1,2,2,3,3,4,4],"right_children":[2,4,6,8,10,-1,-1,-1,-1,-1,-1],"split_conditions":[3.4695768E0,1.8241222E0,5.677E9,2.580645E-1,3.2412853E-2,1.9397274E-2,8.141385E-2,-1.46538215E-2,3.6408696E-2,2.5013361E-2,-1.01750754E-1],"split_indices":[16,17,4,17,16,0,0,0,0,0,0],"split_type":[0,0,0,0,0,0,0,0,0,0,0],"sum_hessian":[4.810711E1,4.5032185E1,3.074924E0,4.066061E1,4.371574E0,1.0764239E0,1.9985001E0,2.7090506E1,1.35701065E1,1.0269383E0,3.3446357E0],"tree_param":{"num_deleted":"0","num_feature":"24","num_nodes":"11","size_leaf_vector":"1"}},{"base_weights":[3.0517324E-3,4.2363867E-1,-9.4117284E-2,5.5888444E-1,-1.6010584E-2,-8.974307E-2,2.1901036E-2,3.4683257E-2,7.705083E-2,-6.107209E-2,1.3744533E-2],"categories":[],"categories_nodes":[],"categories_segments":[],"categories_sizes":[],"default_left":[0,0,0,0,0,0,0,0,0,0,0],"id":52,"left_children":[1,3,5,7,-1,-1,9,-1,-1,-1,-1],"loss_changes":[2.0302181E0,8.2542825E-1,3.783033E0,8.2386255E-2,0E0,0E0,2.7344167E0,0E0,0E0,0E0,0E0],"parents":[2147483647,0,0,1,1,2,2,3,3,6,6],"right_children":[2,4,6,8,-1,-1,10,-1,-1,-1,-1],"split_conditions":[-2.7854426E-2,1.5836345E-1,2.7008262E-1,6.671467E-1,-1.6010584E-2,-8.974307E-2,1.058468E9,3.4683257E-2,7.705083E-2,-6.107209E-2,1.3744533E-2],"split_indices":[23,8,23,18,0,0,0,0,0,0,0],"split_type":[0,0,0,0,0,0,0,0,0,0,0],"sum_hessian":[4.7701805E1,8.321813E0,3.9379993E1,6.7910132E0,1.5307994E0,4.119719E0,3.5260277E1,4.7101984E0,2.0808148E0,4.7836256E0,3.047665E1],"tree_param":{"num_deleted":"0","num_feature":"24","num_nodes":"11","size_leaf_vector":"1"}},{"base_weights":[1.7619068E-3,-8.87473E-2,4.488677E-1,1.0848732E-1,-7.28719E-1,-1.4872952E-1,7.5707513E-1,2.2311257E-2,-8.528003E-2,4.4563644E-2,-9.153553E-2,6.304967E-2,-8.186566E-2,9.613554E-2,1.774964E-2],"categories":[],"categories_nodes":[],"categories_segments":[],"categories_sizes":[],"default_left":[0,0,0,0,0,0,0,0,0,0,0,0,0,0,0],"id":53,"left_children":[1,3,5,7,9,11,13,-1,-1,-1,-1,-1,-1,-1,-1],"loss_changes":[1.9894809E0,5.2419386E0,1.6369174E0,3.7313454E0,2.5483198E0,2.4224916E0,4.9525595E-1,0E0,0E0,0E0,0E0,0E0,0E0,0E0,0E0],"parents":[2147483647,0,0,1,1,2,2,3,3,4,4,5,5,6,6],"right_children":[2,4,6,8,10,12,14,-1,-1,-1,-1,-1,-1,-1,-1],"split_conditions":[3.381076E0,1.7772543E0,2.1472916E-1,7.9474E10,-4.26323E8,-5.083829E-1,2.0788288E-1,2.2311257E-2,-8.528003E-2,4.4563644E-2,-9.153553E-2,6.304967E-2,-8.186566E-2,9.613554E-2,1.774964E-2],"split_indices":[12,12,18,0,2,8,16,0,0,0,0,0,0,0,0],"split_type":[0,0,0,0,0,0,0,0,0,0,0,0,0,0,0],"sum_hessian":[4.7178413E1,3.9902348E1,7.2760663E0,3.1136717E1,8.765629E0,2.651803E0,4.6242633E0,2.8505577E1,2.6311412E0,1.0117507E0,7.753878E0,1.2531078E0,1.3986952E0,2.9320936E0,1.6921695E0],"tree_param":{"num_deleted":"0","num_feature":"24","num_nodes":"15","size_leaf_vector":"1"}},{"base_weights":[1.1159594E-3,5.42688E-2,-7.713135E-2,3.6469817E-1,-8.053689E-2,5.9908897E-2,-7.620697E-2,-3.3703946E-2,2.4743412E-2],"categories":[],"categories_nodes":[],"categories_segments":[],"categories_sizes":[],"default_left":[0,0,0,0,0,0,0,0,0],"id":54,"left_children":[1,3,-1,5,7,-1,-1,-1,-1],"loss_changes":[1.988283E0,1.9246557E0,0E0,4.125893E0,2.8087668E0,0E0,0E0,0E0,0E0],"parents":[2147483647,0,0,1,1,3,3,4,4],"right_children":[2,4,-1,6,8,-1,-1,-1,-1],"split_conditions":[2.913098E-1,1.6137146E0,-7.713135E-2,3.3014E10,4.0479E10,5.9908897E-2,-7.620697E-2,-3.3703946E-2,2.4743412E-2],"split_indices":[11,12,0,0,0,0,0,0,0],"split_type":[0,0,0,0,0,0,0,0,0],"sum_hessian":[4.640807E1,4.42901E1,2.117972E0,1.2893559E1,3.139654E1,1.1060964E1,1.8325953E0,1.7602312E1,1.3794228E1],"tree_param":{"num_deleted":"0","num_feature":"24","num_nodes":"9","size_leaf_vector":"1"}},{"base_weights":[-1.2162859E-3,4.9393603E-1,-8.29629E-2,-4.0581137E-2,7.27076E-1,-8.36878E-2,-7.181077E-3,8.5434996E-2,1.4300679E-2,6.3514635E-2,-1.2692312E-2],"categories":[],"categories_nodes":[],"categories_segments":[],"categories_sizes":[],"default_left":[0,0,0,0,0,0,0,0,0,0,0],"id":55,"left_children":[1,3,5,-1,7,-1,9,-1,-1,-1,-1],"loss_changes":[1.9406787E0,1.720253E0,2.3443651E0,0E0,3.0557156E-1,0E0,3.033312E0,0E0,0E0,0E0,0E0],"parents":[2147483647,0,0,1,1,2,2,4,4,6,6],"right_children":[2,4,6,-1,8,-1,10,-1,-1,-1,-1],"split_conditions":[-3.6547327E-1,6.17287E8,1.058468E9,-4.0581137E-2,-1.28367E8,-8.36878E-2,2.413E9,8.5434996E-2,1.4300679E-2,6.3514635E-2,-1.2692312E-2],"split_indices":[8,6,0,0,2,0,4,0,0,0,0],"split_type":[0,0,0,0,0,0,0,0,0,0,0],"sum_hessian":[4.5932804E1,5.7941895E0,4.0138615E1,1.039985E0,4.7542043E0,2.7488124E0,3.73898E1,3.523621E0,1.2305833E0,5.1986427E0,3.219116E1],"tree_param":{"num_deleted":"0","num_feature":"24","num_nodes":"11","size_leaf_vector":"1"}},{"base_weights":[-3.047329E-4,-6.0208645E-2,6.7671394E-1,-1.859863E-1,3.5931545E-1,1.9840231E-2,7.766477E-2,-1.105727E-3,-7.8218065E-2,7.431734E-2,-7.998891E-3],"categories":[],"categories_nodes":[],"categories_segments":[],"categories_sizes":[],"default_left":[0,0,0,0,0,0,0,0,0,0,0],"id":56,"left_children":[1,3,5,7,9,-1,-1,-1,-1,-1,-1],"loss_changes":[1.923613E0,2.3659096E0,3.0210018E-2,3.5560112E0,1.8116758E0,0E0,0E0,0E0,0E0,0E0,0E0],"parents":[2147483647,0,0,1,1,2,2,3,3,4,4],"right_children":[2,4,6,8,10,-1,-1,-1,-1,-1,-1],"split_conditions":[3.4695768E0,5.489725E-1,5.677E9,3.0238038E-1,6.5518536E-2,1.9840231E-2,7.766477E-2,-1.105727E-3,-7.8218065E-2,7.431734E-2,-7.998891E-3],"split_indices":[16,23,4,23,9,0,0,0,0,0,0],"split_type":[0,0,0,0,0,0,0,0,0,0,0],"sum_hessian":[4.542632E1,4.2570652E1,2.855665E0,3.3179707E1,9.390945E0,1.009456E0,1.8462089E0,2.6440393E1,6.7393136E0,4.642601E0,4.7483444E0],"tree_param":{"num_deleted":"0","num_feature":"24","num_nodes":"11","size_leaf_vector":"1"}},{"base_weights":[1.6200291E-3,-8.6506195E-2,4.4236013E-1,5.177039E-2,-8.7382036E-1,-1.1880922E-1,7.2284585E-1,1.4990771E-2,-7.729981E-2,-1.0962086E-1,6.744408E-3,6.068916E-2,-7.5672984E-2,9.235321E-2,1.5814565E-2],"categories":[],"categories_nodes":[],"categories_segments":[],"categories_sizes":[],"default_left":[0,0,0,0,0,0,0,0,0,0,0,0,0,0,0],"id":57,"left_children":[1,3,5,7,9,11,13,-1,-1,-1,-1,-1,-1,-1,-1],"loss_changes":[1.8189775E0,4.2957773E0,1.3140833E0,2.8803744E0,1.3065982E0,2.0606759E0,4.5954943E-1,0E0,0E0,0E0,0E0,0E0,0E0,0E0,0E0],"parents":[2147483647,0,0,1,1,2,2,3,3,4,4,5,5,6,6],"right_children":[2,4,6,8,10,12,14,-1,-1,-1,-1,-1,-1,-1,-1],"split_conditions":[3.381076E0,2.0462875E0,2.1472916E-1,6.3046E10,1.0988369E0,-5.083829E-1,2.0788288E-1,1.4990771E-2,-7.729981E-2,-1.0962086E-1,6.744408E-3,6.068916E-2,-7.5672984E-2,9.235321E-2,1.5814565E-2],"split_indices":[12,12,18,4,18,8,16,0,0,0,0,0,0,0,0],"split_type":[0,0,0,0,0,0,0,0,0,0,0,0,0,0,0],"sum_hessian":[4.4846436E1,3.804337E1,6.803067E0,3.315464E1,4.88873E0,2.459249E0,4.343818E0,3.036037E1,2.7942688E0,3.8212807E0,1.0674495E0,1.173225E0,1.286024E0,2.7360334E0,1.6077845E0],"tree_param":{"num_deleted":"0","num_feature":"24","num_nodes":"15","size_leaf_vector":"1"}},{"base_weights":[-3.4561346E-4,4.0236947E-1,-9.422122E-2,5.230078E-1,-1.973307E-2,-8.667334E-2,1.4258767E-2,1.9076392E-2,6.3657396E-2,-7.7671814E-3,6.531203E-2],"categories":[],"categories_nodes":[],"categories_segments":[],"categories_sizes":[],"default_left":[0,0,0,0,0,0,0,0,0,0,0],"id":58,"left_children":[1,3,5,7,-1,-1,9,-1,-1,-1,-1],"loss_changes":[1.745653E0,7.3472846E-1,3.1501706E0,1.6310453E-1,0E0,0E0,2.0367978E0,0E0,0E0,0E0,0E0],"parents":[2147483647,0,0,1,1,2,2,3,3,6,6],"right_children":[2,4,6,8,-1,-1,10,-1,-1,-1,-1],"split_conditions":[-2.7854426E-2,3.64878E10,2.7008262E-1,1E0,-1.973307E-2,-8.667334E-2,8.2137E10,1.9076392E-2,6.3657396E-2,-7.7671814E-3,6.531203E-2],"split_indices":[23,4,23,21,0,0,6,0,0,0,0],"split_type":[0,0,0,0,0,0,0,0,0,0,0],"sum_hessian":[4.4172222E1,7.729102E0,3.644312E1,6.5411415E0,1.1879607E0,3.6267016E0,3.2816418E1,2.3489428E0,4.1921983E0,2.945617E1,3.3602479E0],"tree_param":{"num_deleted":"0","num_feature":"24","num_nodes":"11","size_leaf_vector":"1"}},{"base_weights":[3.6600206E-4,-5.6757744E-2,6.4794414E-2,2.4521617E-2,-6.948054E-1,-3.6064337E-3,8.7301396E-2,1.361593E-2,-9.519203E-2],"categories":[],"categories_nodes":[],"categories_segments":[],"categories_sizes":[],"default_left":[0,0,0,0,0,0,0,0,0],"id":59,"left_children":[1,3,-1,5,7,-1,-1,-1,-1],"loss_changes":[1.689673E0,2.1941204E0,0E0,1.9953427E0,1.150353E0,0E0,0E0,0E0,0E0],"parents":[2147483647,0,0,1,1,3,3,4,4],"right_children":[2,4,-1,6,8,-1,-1,-1,-1],"split_conditions":[3.4695768E0,1.8241222E0,6.4794414E-2,1.6604978E0,7.711061E-2,-3.6064337E-3,8.7301396E-2,1.361593E-2,-9.519203E-2],"split_indices":[16,17,0,17,16,0,0,0,0],"split_type":[0,0,0,0,0,0,0,0,0],"sum_hessian":[4.3682453E1,4.0979916E1,2.7025404E0,3.7202362E1,3.777552E0,3.5616676E1,1.585686E0,1.0038055E0,2.7737465E0],"tree_param":{"num_deleted":"0","num_feature":"24","num_nodes":"9","size_leaf_vector":"1"}},{"base_weights":[1.8018422E-3,5.167887E-2,-7.349365E-2,3.4356412E-1,-7.465755E-2,5.5613376E-2,-7.1325384E-2,-2.2311503E-2,4.2006727E-2],"categories":[],"categories_nodes":[],"categories_segments":[],"categories_sizes":[],"default_left":[0,0,0,0,0,0,0,0,0],"id":60,"left_children":[1,3,-1,5,7,-1,-1,-1,-1],"loss_changes":[1.6684281E0,1.5925465E0,0E0,3.3202882E0,2.3321245E0,0E0,0E0,0E0,0E0],"parents":[2147483647,0,0,1,1,3,3,4,4],"right_children":[2,4,-1,6,8,-1,-1,-1,-1],"split_conditions":[2.913098E-1,1.6137146E0,-7.349365E-2,3.3014E10,3.381076E0,5.5613376E-2,-7.1325384E-2,-2.2311503E-2,4.2006727E-2],"split_indices":[11,12,0,0,12,0,0,0,0],"split_type":[0,0,0,0,0,0,0,0,0],"sum_hessian":[4.337036E1,4.149127E1,1.8790956E0,1.20142765E1,2.9476992E1,1.0396814E1,1.617462E0,2.3095488E1,6.381503E0],"tree_param":{"num_deleted":"0","num_feature":"24","num_nodes":"9","size_leaf_vector":"1"}},{"base_weights":[4.951281E-5,4.6803612E-1,-7.647926E-2,-2.1559326E-2,6.78734E-1,-3.4605744E-1,1.6574022E-1,8.082617E-2,1.3153833E-2,-3.7407663E-3,-9.835358E-2,8.929669E-2,-3.1901405E-3],"categories":[],"categories_nodes":[],"categories_segments":[],"categories_sizes":[],"default_left":[0,0,0,0,0,0,0,0,0,0,0,0,0],"id":61,"left_children":[1,3,5,-1,7,9,11,-1,-1,-1,-1,-1,-1],"loss_changes":[1.6076734E0,1.0550591E0,2.5765574E0,0E0,2.5257707E-1,3.6195464E0,3.0464852E0,0E0,0E0,0E0,0E0,0E0,0E0],"parents":[2147483647,0,0,1,1,2,2,4,4,5,5,6,6],"right_children":[2,4,6,-1,8,10,12,-1,-1,-1,-1,-1,-1],"split_conditions":[-3.6547327E-1,7.74866E8,2.5371E10,-2.1559326E-2,-1.28367E8,2.254195E10,3.3014E10,8.082617E-2,1.3153833E-2,-3.7407663E-3,-9.835358E-2,8.929669E-2,-3.1901405E-3],"split_indices":[8,6,0,0,2,3,0,0,0,0,0,0,0],"split_type":[0,0,0,0,0,0,0,0,0,0,0,0,0],"sum_hessian":[4.288951E1,5.3088946E0,3.7580616E1,1.2452685E0,4.063626E0,1.7582964E1,1.9997654E1,2.9000514E0,1.1635746E0,1.256029E1,5.022673E0,3.5216293E0,1.6476025E1],"tree_param":{"num_deleted":"0","num_feature":"24","num_nodes":"13","size_leaf_vector":"1"}},{"base_weights":[1.2720173E-3,-9.9861726E-2,3.559193E-1,6.964593E-2,-7.478619E-1,6.021583E-1,-3.0423236E-1,3.2881718E-2,-3.1215979E-2,3.4495614E-2,-1.0158783E-1,7.8526266E-2,-1.9865762E-2,-7.983055E-2,2.591819E-2],"categories":[],"categories_nodes":[],"categories_segments":[],"categories_sizes":[],"default_left":[0,0,0,0,0,0,0,0,0,0,0,0,0,0,0],"id":62,"left_children":[1,3,5,7,9,11,13,-1,-1,-1,-1,-1,-1,-1,-1],"loss_changes":[1.5859131E0,3.8322914E0,1.7779447E0,2.8925433E0,2.4654408E0,1.2529507E0,1.1337509E0,0E0,0E0,0E0,0E0,0E0,0E0,0E0,0E0],"parents":[2147483647,0,0,1,1,2,2,3,3,4,4,5,5,6,6],"right_children":[2,4,6,8,10,12,14,-1,-1,-1,-1,-1,-1,-1,-1],"split_conditions":[5.489725E-1,3.0238038E-1,1.4878774E10,4.25E0,-2.8759924E-1,9.4919E9,4.7935E10,3.2881718E-2,-3.1215979E-2,3.4495614E-2,-1.0158783E-1,7.8526266E-2,-1.9865762E-2,-7.983055E-2,2.591819E-2],"split_indices":[23,23,4,22,16,6,4,0,0,0,0,0,0,0,0],"split_type":[0,0,0,0,0,0,0,0,0,0,0,0,0,0,0],"sum_hessian":[4.222577E1,3.3415257E1,8.810513E0,2.719417E1,6.221087E0,6.4809446E0,2.3295677E0,1.6281206E1,1.0912964E1,1.168705E0,5.052382E0,5.29067E0,1.1902751E0,1.0190386E0,1.3105291E0],"tree_param":{"num_deleted":"0","num_feature":"24","num_nodes":"15","size_leaf_vector":"1"}},{"base_weights":[-4.476227E-4,-4.6673145E-2,7.098471E-2,-1.1993623E-1,4.845158E-1,-2.2100296E-4,-9.9052496E-2,7.5714625E-2,-3.1826154E-3],"categories":[],"categories_nodes":[],"categories_segments":[],"categories_sizes":[],"default_left":[0,0,0,0,0,0,0,0,0],"id":63,"left_children":[1,3,-1,5,7,-1,-1,-1,-1],"loss_changes":[1.4221945E0,1.6404291E0,0E0,3.7420888E0,7.457657E-1,0E0,0E0,0E0,0E0],"parents":[2147483647,0,0,1,1,3,3,4,4],"right_children":[2,4,-1,6,8,-1,-1,-1,-1],"split_conditions":[1.2261502E0,9.5391E10,7.098471E-2,6.3054E10,-2.34367E-2,-2.2100296E-4,-9.9052496E-2,7.5714625E-2,-3.1826154E-3],"split_indices":[18,6,0,0,17,0,0,0,0],"split_type":[0,0,0,0,0,0,0,0,0],"sum_hessian":[4.130598E1,3.965927E1,1.6467097E0,3.553271E1,4.1265607E0,3.218324E1,3.349471E0,2.3954096E0,1.7311509E0],"tree_param":{"num_deleted":"0","num_feature":"24","num_nodes":"9","size_leaf_vector":"1"}},{"base_weights":[5.605966E-4,4.613497E-2,-6.942034E-2,3.348062E-1,-7.605457E-2,5.2782793E-2,-6.637276E-2,-3.341266E-2,2.3569027E-2],"categories":[],"categories_nodes":[],"categories_segments":[],"categories_sizes":[],"default_left":[0,0,0,0,0,0,0,0,0],"id":64,"left_children":[1,3,-1,5,7,-1,-1,-1,-1],"loss_changes":[1.359296E0,1.4460781E0,0E0,2.6946027E0,2.4209156E0,0E0,0E0,0E0,0E0],"parents":[2147483647,0,0,1,1,3,3,4,4],"right_children":[2,4,-1,6,8,-1,-1,-1,-1],"split_conditions":[2.913098E-1,1.6137146E0,-6.942034E-2,3.3014E10,4.0479E10,5.2782793E-2,-6.637276E-2,-3.341266E-2,2.3569027E-2],"split_indices":[11,12,0,0,0,0,0,0,0],"split_type":[0,0,0,0,0,0,0,0,0],"sum_hessian":[4.0918034E1,3.927529E1,1.6427417E0,1.1162937E1,2.8112354E1,9.749673E0,1.413265E0,1.5340893E1,1.27714615E1],"tree_param":{"num_deleted":"0","num_feature":"24","num_nodes":"9","size_leaf_vector":"1"}},{"base_weights":[-1.7512438E-3,4.519739E-1,-7.611278E-2,-2.076494E-2,6.582542E-1,-3.3464763E-1,1.5812449E-1,7.901592E-2,1.1144194E-2,-5.6382604E-2,4.0098224E-2,5.4280914E-2,-1.6274208E-2],"categories":[],"categories_nodes":[],"categories_segments":[],"categories_sizes":[],"default_left":[0,0,0,0,0,0,0,0,0,0,0,0,0],"id":65,"left_children":[1,3,5,-1,7,9,11,-1,-1,-1,-1,-1,-1],"loss_changes":[1.4360665E0,9.5227325E-1,2.2662995E0,0E0,2.5857854E-1,3.209217E0,2.5390837E0,0E0,0E0,0E0,0E0,0E0,0E0],"parents":[2147483647,0,0,1,1,2,2,4,4,5,5,6,6],"right_children":[2,4,6,-1,8,10,12,-1,-1,-1,-1,-1,-1],"split_conditions":[-3.6547327E-1,7.74866E8,3.132E9,-2.076494E-2,-1.28367E8,5.489725E-1,8.566913E-2,7.901592E-2,1.1144194E-2,-5.6382604E-2,4.0098224E-2,5.4280914E-2,-1.6274208E-2],"split_indices":[8,6,1,0,2,23,18,0,0,0,0,0,0],"split_type":[0,0,0,0,0,0,0,0,0,0,0,0,0],"sum_hessian":[4.0543514E1,4.994001E0,3.554951E1,1.1881171E0,3.805884E0,1.6694553E1,1.885496E1,2.7076917E0,1.0981922E0,1.2907037E1,3.787516E0,8.260185E0,1.0594774E1],"tree_param":{"num_deleted":"0","num_feature":"24","num_nodes":"13","size_leaf_vector":"1"}},{"base_weights":[7.641208E-4,-5.6988273E-2,6.036079E-2,2.4972707E-1,-1.9898656E-1,4.437005E-2,-6.793589E-2,-5.5949926E-2,1.8283285E-2],"categories":[],"categories_nodes":[],"categories_segments":[],"categories_sizes":[],"default_left":[0,0,0,0,0,0,0,0,0],"id":66,"left_children":[1,3,-1,5,7,-1,-1,-1,-1],"loss_changes":[1.4620887E0,1.719334E0,0E0,2.567686E0,3.7859306E0,0E0,0E0,0E0,0E0],"parents":[2147483647,0,0,1,1,3,3,4,4],"right_children":[2,4,-1,6,8,-1,-1,-1,-1],"split_conditions":[7.63602E-1,1.6137146E0,6.036079E-2,3.3014E10,4.0479E10,4.437005E-2,-6.793589E-2,-5.5949926E-2,1.8283285E-2],"split_indices":[13,12,0,0,0,0,0,0,0],"split_type":[0,0,0,0,0,0,0,0,0],"sum_hessian":[4.000711E1,3.733581E1,2.6713006E0,1.1575071E1,2.5760738E1,1.00080385E1,1.5670328E0,1.3010713E1,1.2750026E1],"tree_param":{"num_deleted":"0","num_feature":"24","num_nodes":"9","size_leaf_vector":"1"}},{"base_weights":[6.4727716E-4,4.5179307E-1,-7.33593E-2,-1.7869368E-2,6.4899546E-1,-3.1236178E-1,1.4051083E-1,7.804541E-2,1.040152E-2,1.6672766E-3,-8.636319E-2,4.9032044E-2,-1.4980273E-2],"categories":[],"categories_nodes":[],"categories_segments":[],"categories_sizes":[],"default_left":[0,0,0,0,0,0,0,0,0,0,0,0,0],"id":67,"left_children":[1,3,5,-1,7,9,11,-1,-1,-1,-1,-1,-1],"loss_changes":[1.3877013E0,8.4419894E-1,1.8694009E0,0E0,2.5392544E-1,3.1299047E0,2.0575643E0,0E0,0E0,0E0,0E0,0E0,0E0],"parents":[2147483647,0,0,1,1,2,2,4,4,5,5,6,6],"right_children":[2,4,6,-1,8,10,12,-1,-1,-1,-1,-1,-1],"split_conditions":[-3.6547327E-1,7.74866E8,3.132E9,-1.7869368E-2,-1.28367E8,1.075E9,8.566913E-2,7.804541E-2,1.040152E-2,1.6672766E-3,-8.636319E-2,4.9032044E-2,-1.4980273E-2],"split_indices":[8,6,1,0,2,2,18,0,0,0,0,0,0],"split_type":[0,0,0,0,0,0,0,0,0,0,0,0,0],"sum_hessian":[3.9570503E1,4.8570495E0,3.471345E1,1.1795858E0,3.6774635E0,1.6176027E1,1.8537426E1,2.6146798E0,1.0627837E0,1.07371435E1,5.4388833E0,8.094785E0,1.0442641E1],"tree_param":{"num_deleted":"0","num_feature":"24","num_nodes":"13","size_leaf_vector":"1"}},{"base_weights":[1.0473985E-3,-8.1131294E-2,4.0987822E-1,4.3982785E-2,-7.974491E-1,-1.5050362E-2,6.7211556E-1,1.2739842E-2,-7.031412E-2,2.380913E-3,-1.0084107E-1,8.664366E-2,1.2273544E-2],"categories":[],"categories_nodes":[],"categories_segments":[],"categories_sizes":[],"default_left":[0,0,0,0,0,0,0,0,0,0,0,0,0],"id":68,"left_children":[1,3,5,7,9,-1,11,-1,-1,-1,-1,-1,-1],"loss_changes":[1.3793094E0,3.0995743E0,1.1108271E0,1.9627988E0,9.139478E-1,0E0,4.128549E-1,0E0,0E0,0E0,0E0,0E0,0E0],"parents":[2147483647,0,0,1,1,2,2,3,3,4,4,6,6],"right_children":[2,4,6,8,10,-1,12,-1,-1,-1,-1,-1,-1],"split_conditions":[3.381076E0,2.0462875E0,2.1472916E-1,6.3046E10,-2.7854426E-2,-1.5050362E-2,2.0788288E-1,1.2739842E-2,-7.031412E-2,2.380913E-3,-1.0084107E-1,8.664366E-2,1.2273544E-2],"split_indices":[12,12,18,4,23,0,16,0,0,0,0,0,0],"split_type":[0,0,0,0,0,0,0,0,0,0,0,0,0],"sum_hessian":[3.9064533E1,3.319383E1,5.8707066E0,2.9057213E1,4.1366158E0,2.0073106E0,3.863396E0,2.688501E1,2.1722023E0,1.026738E0,3.1098776E0,2.4276102E0,1.4357857E0],"tree_param":{"num_deleted":"0","num_feature":"24","num_nodes":"13","size_leaf_vector":"1"}},{"base_weights":[-1.0301213E-3,-5.520084E-2,6.071151E-2,8.0674864E-2,-4.0072235E-1,-9.543045E-3,5.1552724E-2,-9.7052604E-2,2.1009497E-2],"categories":[],"categories_nodes":[],"categories_segments":[],"categories_sizes":[],"default_left":[0,0,0,0,0,0,0,0,0],"id":69,"left_children":[1,3,-1,5,7,-1,-1,-1,-1],"loss_changes":[1.3381164E0,1.7824893E0,0E0,2.1619668E0,3.9243782E0,0E0,0E0,0E0,0E0],"parents":[2147483647,0,0,1,1,3,3,4,4],"right_children":[2,4,-1,6,8,-1,-1,-1,-1],"split_conditions":[3.4695768E0,1.7227608E-1,6.071151E-2,1.2709741E-1,1.31107E11,-9.543045E-3,5.1552724E-2,-9.7052604E-2,2.1009497E-2],"split_indices":[16,8,0,8,3,0,0,0,0],"split_type":[0,0,0,0,0,0,0,0,0],"sum_hessian":[3.860104E1,3.627873E1,2.322308E0,2.658912E1,9.6896105E0,1.9480505E1,7.1086154E0,4.7084312E0,4.9811788E0],"tree_param":{"num_deleted":"0","num_feature":"24","num_nodes":"9","size_leaf_vector":"1"}},{"base_weights":[-5.1236566E-4,4.4069523E-1,-7.347451E-2,-1.585288E-2,6.3201416E-1,-2.7553183E-1,1.5723954E-1,7.637682E-2,1.0182279E-2,6.671016E-3,-1.0023935E-1,-1.3022102E-2,4.774494E-2],"categories":[],"categories_nodes":[],"categories_segments":[],"categories_sizes":[],"default_left":[0,0,0,0,0,0,0,0,0,0,0,0,0],"id":70,"left_children":[1,3,5,-1,7,9,11,-1,-1,-1,-1,-1,-1],"loss_changes":[1.2909162E0,7.5258386E-1,1.6471853E0,0E0,2.3755467E-1,4.719918E0,1.5993654E0,0E0,0E0,0E0,0E0,0E0,0E0],"parents":[2147483647,0,0,1,1,2,2,4,4,5,5,6,6],"right_children":[2,4,6,-1,8,10,12,-1,-1,-1,-1,-1,-1],"split_conditions":[-3.6547327E-1,7.74866E8,2.658925E-1,-1.585288E-2,-1.28367E8,5.3621825E-2,5.02E0,7.637682E-2,1.0182279E-2,6.671016E-3,-1.0023935E-1,-1.3022102E-2,4.774494E-2],"split_indices":[8,6,17,0,2,17,22,0,0,0,0,0,0],"split_type":[0,0,0,0,0,0,0,0,0,0,0,0,0],"sum_hessian":[3.8095356E1,4.6906414E0,3.3404716E1,1.1766578E0,3.5139835E0,1.7704773E1,1.5699942E1,2.461694E0,1.0522896E0,1.2654594E1,5.05018E0,8.585682E0,7.1142592E0],"tree_param":{"num_deleted":"0","num_feature":"24","num_nodes":"13","size_leaf_vector":"1"}},{"base_weights":[-3.8648106E-4,-8.090132E-2,3.8737386E-1,2.1881238E-2,-7.1156377E-1,6.804758E-1,-2.2774274E-2,-1.21905105E-2,5.5934872E-2,-1.3271247E-2,-1.00134544E-1,3.099614E-3,8.436729E-2],"categories":[],"categories_nodes":[],"categories_segments":[],"categories_sizes":[],"default_left":[0,0,0,0,0,0,0,0,0,0,0,0,0],"id":71,"left_children":[1,3,5,7,9,11,-1,-1,-1,-1,-1,-1,-1],"loss_changes":[1.2322675E0,2.13389E0,1.3785402E0,2.3147354E0,6.4029694E-1,4.8761606E-1,0E0,0E0,0E0,0E0,0E0,0E0,0E0],"parents":[2147483647,0,0,1,1,2,2,3,3,4,4,5,5],"right_children":[2,4,6,8,10,12,-1,-1,-1,-1,-1,-1,-1],"split_conditions":[7.2467875E-1,4.8787475E-1,1.5497091E-1,2.3838201E-1,1.6582024E0,1.3356E9,-2.2774274E-2,-1.21905105E-2,5.5934872E-2,-1.3271247E-2,-1.00134544E-1,3.099614E-3,8.436729E-2],"split_indices":[18,18,8,18,12,0,0,0,0,0,0,0,0],"split_type":[0,0,0,0,0,0,0,0,0,0,0,0,0],"sum_hessian":[3.7466072E1,3.1679485E1,5.786588E0,2.8070057E1,3.6094284E0,3.8471658E0,1.9394225E0,2.2755548E1,5.3145075E0,1.6905186E0,1.9189097E0,1.0115209E0,2.835645E0],"tree_param":{"num_deleted":"0","num_feature":"24","num_nodes":"13","size_leaf_vector":"1"}},{"base_weights":[-2.8901154E-4,-5.3032022E-2,5.840688E-2,-1.6414541E-1,3.126031E-1,1.2476235E-2,-4.7613855E-2,6.519731E-2,-1.3531287E-2],"categories":[],"categories_nodes":[],"categories_segments":[],"categories_sizes":[],"default_left":[0,0,0,0,0,0,0,0,0],"id":72,"left_children":[1,3,-1,5,7,-1,-1,-1,-1],"loss_changes":[1.2045165E0,1.507419E0,0E0,2.596167E0,1.4103298E0,0E0,0E0,0E0,0E0],"parents":[2147483647,0,0,1,1,3,3,4,4],"right_children":[2,4,-1,6,8,-1,-1,-1,-1],"split_conditions":[3.4695768E0,5.489725E-1,5.840688E-2,9.949085E-2,6.2067732E-2,1.2476235E-2,-4.7613855E-2,6.519731E-2,-1.3531287E-2],"split_indices":[16,23,0,16,8,0,0,0,0],"split_type":[0,0,0,0,0,0,0,0,0],"sum_hessian":[3.707632E1,3.4840897E1,2.2354248E0,2.7143335E1,7.697561E0,1.4404647E1,1.2738688E1,4.1202354E0,3.5773256E0],"tree_param":{"num_deleted":"0","num_feature":"24","num_nodes":"9","size_leaf_vector":"1"}},{"base_weights":[1.8720279E-3,4.4549277E-1,-7.155125E-2,-1.4435065E-2,6.3014436E-1,-3.0982906E-1,1.3933422E-1,7.475223E-2,1.33955795E-2,-1.334298E-3,-8.14455E-2,6.500908E-2,-6.438417E-3],"categories":[],"categories_nodes":[],"categories_segments":[],"categories_sizes":[],"default_left":[0,0,0,0,0,0,0,0,0,0,0,0,0],"id":73,"left_children":[1,3,5,-1,7,9,11,-1,-1,-1,-1,-1,-1],"loss_changes":[1.2603999E0,6.893909E-1,1.7125859E0,0E0,1.5443039E-1,2.3692746E0,1.9474537E0,0E0,0E0,0E0,0E0,0E0,0E0],"parents":[2147483647,0,0,1,1,2,2,4,4,5,5,6,6],"right_children":[2,4,6,-1,8,10,12,-1,-1,-1,-1,-1,-1],"split_conditions":[-3.6547327E-1,7.74866E8,3.132E9,-1.4435065E-2,-1.28367E8,1.075E9,4.332E9,7.475223E-2,1.33955795E-2,-1.334298E-3,-8.14455E-2,6.500908E-2,-6.438417E-3],"split_indices":[8,6,1,0,2,2,1,0,0,0,0,0,0],"split_type":[0,0,0,0,0,0,0,0,0,0,0,0,0],"sum_hessian":[3.671709E1,4.4944324E0,3.2222656E1,1.1235775E0,3.370855E0,1.490849E1,1.7314167E1,2.3163688E0,1.0544863E0,1.0037522E1,4.870968E0,4.312036E0,1.300213E1],"tree_param":{"num_deleted":"0","num_feature":"24","num_nodes":"13","size_leaf_vector":"1"}},{"base_weights":[3.0274345E-3,3.6270207E-1,-8.158573E-2,5.455202E-1,-7.8470195E-3,-7.842542E-2,1.1124853E-2,6.6080384E-2,1.9740837E-2,-5.2322786E-2,1.1198624E-2],"categories":[],"categories_nodes":[],"categories_segments":[],"categories_sizes":[],"default_left":[0,0,0,0,0,0,0,0,0,0,0],"id":74,"left_children":[1,3,5,7,-1,-1,9,-1,-1,-1,-1],"loss_changes":[1.163983E0,6.301718E-1,2.0277126E0,8.12304E-2,0E0,0E0,1.5873854E0,0E0,0E0,0E0,0E0],"parents":[2147483647,0,0,1,1,2,2,3,3,6,6],"right_children":[2,4,6,8,-1,-1,10,-1,-1,-1,-1],"split_conditions":[-2.7854426E-2,1.5497091E-1,2.7008262E-1,4.5040694E-1,-7.8470195E-3,-7.842542E-2,1.058468E9,6.6080384E-2,1.9740837E-2,-5.2322786E-2,1.1198624E-2],"split_indices":[23,8,23,13,0,0,0,0,0,0,0],"split_type":[0,0,0,0,0,0,0,0,0,0,0],"sum_hessian":[3.6274803E1,6.2824974E0,2.9992306E1,4.27461E0,2.0078871E0,2.6264966E0,2.7365808E1,2.5363867E0,1.7382234E0,3.680313E0,2.3685495E1],"tree_param":{"num_deleted":"0","num_feature":"24","num_nodes":"11","size_leaf_vector":"1"}},{"base_weights":[1.5337063E-3,-7.642371E-2,3.940912E-1,7.896172E-2,-6.0252076E-1,-1.1197875E-2,6.278047E-1,1.6892605E-2,-6.706412E-2,4.0568653E-3,-8.054209E-2,8.044612E-2,1.2540427E-2],"categories":[],"categories_nodes":[],"categories_segments":[],"categories_sizes":[],"default_left":[0,0,0,0,0,0,0,0,0,0,0,0,0],"id":75,"left_children":[1,3,5,7,9,-1,11,-1,-1,-1,-1,-1,-1],"loss_changes":[1.1603614E0,2.6349835E0,8.132638E-1,1.8207004E0,9.8946166E-1,0E0,2.9393137E-1,0E0,0E0,0E0,0E0,0E0,0E0],"parents":[2147483647,0,0,1,1,2,2,3,3,4,4,6,6],"right_children":[2,4,6,8,10,-1,12,-1,-1,-1,-1,-1,-1],"split_conditions":[3.381076E0,1.7772543E0,2.1472916E-1,6.3046E10,7.55746E-2,-1.1197875E-2,2.0788288E-1,1.6892605E-2,-6.706412E-2,4.0568653E-3,-8.054209E-2,8.044612E-2,1.2540427E-2],"split_indices":[12,12,18,4,11,0,16,0,0,0,0,0,0],"split_type":[0,0,0,0,0,0,0,0,0,0,0,0,0],"sum_hessian":[3.593272E1,3.0651085E1,5.2816358E0,2.4318424E1,6.33266E0,1.833137E0,3.448499E0,2.2404207E1,1.9142168E0,1.710694E0,4.6219664E0,2.106549E0,1.3419497E0],"tree_param":{"num_deleted":"0","num_feature":"24","num_nodes":"13","size_leaf_vector":"1"}},{"base_weights":[6.561188E-5,4.4637293E-1,-7.378138E-2,-1.0153698E-2,6.450119E-2,-7.289867E-2,-6.0895337E-3,5.3940803E-2,-1.1185356E-2],"categories":[],"categories_nodes":[],"categories_segments":[],"categories_sizes":[],"default_left":[0,0,0,0,0,0,0,0,0],"id":76,"left_children":[1,3,5,-1,-1,-1,7,-1,-1],"loss_changes":[1.2365229E0,6.4519846E-1,1.4233406E0,0E0,0E0,0E0,1.801883E0,0E0,0E0],"parents":[2147483647,0,0,1,1,2,2,6,6],"right_children":[2,4,6,-1,-1,-1,8,-1,-1],"split_conditions":[-3.6547327E-1,-5.519403E-1,1.058468E9,-1.0153698E-2,6.450119E-2,-7.289867E-2,2.413E9,5.3940803E-2,-1.1185356E-2],"split_indices":[8,9,0,0,0,0,4,0,0],"split_type":[0,0,0,0,0,0,0,0,0],"sum_hessian":[3.5518368E1,4.326406E0,3.1191961E1,1.2812217E0,3.0451841E0,2.0060205E0,2.9185942E1,4.0739064E0,2.5112034E1],"tree_param":{"num_deleted":"0","num_feature":"24","num_nodes":"9","size_leaf_vector":"1"}},{"base_weights":[8.5925614E-4,-4.3855555E-2,6.523526E-2,4.165005E-1,-1.19548276E-1,-9.572005E-3,6.1183464E-2,-3.7209287E-2,9.553829E-3],"categories":[],"categories_nodes":[],"categories_segments":[],"categories_sizes":[],"default_left":[0,0,0,0,0,0,0,0,0],"id":77,"left_children":[1,3,-1,5,7,-1,-1,-1,-1],"loss_changes":[1.0835365E0,1.2632525E0,0E0,5.7287586E-1,1.7022498E0,0E0,0E0,0E0,0E0],"parents":[2147483647,0,0,1,1,3,3,4,4],"right_children":[2,4,-1,6,8,-1,-1,-1,-1],"split_conditions":[1.2261502E0,-3.6547327E-1,6.523526E-2,-5.519403E-1,3.132E9,-9.572005E-3,6.1183464E-2,-3.7209287E-2,9.553829E-3],"split_indices":[18,8,0,9,1,0,0,0,0],"split_type":[0,0,0,0,0,0,0,0,0],"sum_hessian":[3.521272E1,3.382392E1,1.3887978E0,4.140326E0,2.9683596E1,1.2838035E0,2.8565226E0,1.3317196E1,1.6366398E1],"tree_param":{"num_deleted":"0","num_feature":"24","num_nodes":"9","size_leaf_vector":"1"}},{"base_weights":[3.3905786E-3,-4.6329662E-2,5.586046E-2,2.1689842E-2,-6.010571E-1,-3.5721473E-3,7.482704E-2,-7.973989E-2,-3.3675132E-3],"categories":[],"categories_nodes":[],"categories_segments":[],"categories_sizes":[],"default_left":[0,0,0,0,0,0,0,0,0],"id":78,"left_children":[1,3,-1,5,7,-1,-1,-1,-1],"loss_changes":[1.018484E0,1.2931043E0,0E0,1.3275665E0,3.8981795E-1,0E0,0E0,0E0,0E0],"parents":[2147483647,0,0,1,1,3,3,4,4],"right_children":[2,4,-1,6,8,-1,-1,-1,-1],"split_conditions":[3.4695768E0,1.8241222E0,5.586046E-2,1.6604978E0,8E0,-3.5721473E-3,7.482704E-2,-7.973989E-2,-3.3675132E-3],"split_indices":[16,17,0,17,21,0,0,0,0],"split_type":[0,0,0,0,0,0,0,0,0],"sum_hessian":[3.4956917E1,3.292499E1,2.0319266E0,3.0184706E1,2.7402844E0,2.8855503E1,1.3292032E0,1.7346208E0,1.0056638E0],"tree_param":{"num_deleted":"0","num_feature":"24","num_nodes":"9","size_leaf_vector":"1"}},{"base_weights":[4.311387E-3,4.684894E-2,-6.322334E-2,3.1849954E-1,-7.094683E-2,4.819268E-2,-5.7576925E-2,-2.1095863E-2,3.5941835E-2],"categories":[],"categories_nodes":[],"categories_segments":[],"categories_sizes":[],"default_left":[0,0,0,0,0,0,0,0,0],"id":79,"left_children":[1,3,-1,5,7,-1,-1,-1,-1],"loss_changes":[9.9766666E-1,1.1247513E0,0E0,1.8266715E0,1.572763E0,0E0,0E0,0E0,0E0],"parents":[2147483647,0,0,1,1,3,3,4,4],"right_children":[2,4,-1,6,8,-1,-1,-1,-1],"split_conditions":[2.913098E-1,1.6137146E0,-6.322334E-2,3.3014E10,7.0423615E-1,4.819268E-2,-5.7576925E-2,-2.1095863E-2,3.5941835E-2],"split_indices":[11,12,0,0,13,0,0,0,0],"split_type":[0,0,0,0,0,0,0,0,0],"sum_hessian":[3.4751564E1,3.3443108E1,1.308458E0,9.600174E0,2.3842932E1,8.506676E0,1.0934976E0,1.837482E1,5.4681125E0],"tree_param":{"num_deleted":"0","num_feature":"24","num_nodes":"9","size_leaf_vector":"1"}},{"base_weights":[2.310261E-3,3.4406385E-1,-7.752543E-2,5.2491003E-1,-8.600523E-3,-7.555776E-2,8.891854E-3,1.45941945E-2,6.175983E-2,-4.75377E-2,1.0024576E-2],"categories":[],"categories_nodes":[],"categories_segments":[],"categories_sizes":[],"default_left":[0,0,0,0,0,0,0,0,0,0,0],"id":80,"left_children":[1,3,5,7,-1,-1,9,-1,-1,-1,-1],"loss_changes":[9.932349E-1,5.812114E-1,1.7372377E0,8.524525E-2,0E0,0E0,1.2502354E0,0E0,0E0,0E0,0E0],"parents":[2147483647,0,0,1,1,2,2,3,3,6,6],"right_children":[2,4,6,8,-1,-1,10,-1,-1,-1,-1],"split_conditions":[-2.7854426E-2,1.5497091E-1,2.7008262E-1,1.81089E10,-8.600523E-3,-7.555776E-2,1.058468E9,1.45941945E-2,6.175983E-2,-4.75377E-2,1.0024576E-2],"split_indices":[23,8,23,3,0,0,0,0,0,0,0],"split_type":[0,0,0,0,0,0,0,0,0,0,0],"sum_hessian":[3.442576E1,5.8924074E0,2.853335E1,3.9928637E0,1.899544E0,2.350145E0,2.6183205E1,1.2906042E0,2.7022593E0,3.488248E0,2.2694958E1],"tree_param":{"num_deleted":"0","num_feature":"24","num_nodes":"11","size_leaf_vector":"1"}},{"base_weights":[7.2279683E-4,4.1054273E-1,-6.5300964E-2,2.3929428E-2,6.950426E-2,-2.8843388E-1,1.21841066E-1,4.708599E-2,-4.5753997E-2,-1.7901025E-3,-8.861305E-2,7.6595694E-2,-5.52704E-3],"categories":[],"categories_nodes":[],"categories_segments":[],"categories_sizes":[],"default_left":[0,0,0,0,0,0,0,0,0,0,0,0,0],"id":81,"left_children":[1,3,5,7,-1,9,11,-1,-1,-1,-1,-1,-1],"loss_changes":[9.773883E-1,5.3461677E-1,1.3346223E0,8.9546955E-1,0E0,2.327415E0,2.0533202E0,0E0,0E0,0E0,0E0,0E0,0E0],"parents":[2147483647,0,0,1,1,2,2,3,3,5,5,6,6],"right_children":[2,4,6,8,-1,10,12,-1,-1,-1,-1,-1,-1],"split_conditions":[-3.6547327E-1,4.2393216E-1,2.5371E10,-9.21062E8,6.950426E-2,2.254195E10,3.3014E10,4.708599E-2,-4.5753997E-2,-1.7901025E-3,-8.861305E-2,7.6595694E-2,-5.52704E-3],"split_indices":[8,13,0,1,0,3,0,0,0,0,0,0,0],"split_type":[0,0,0,0,0,0,0,0,0,0,0,0,0],"sum_hessian":[3.413137E1,4.0117426E0,3.0119629E1,2.1602461E0,1.8514967E0,1.3491822E1,1.6627806E1,1.1317343E0,1.0285118E0,9.996913E0,3.4949095E0,2.8690345E0,1.3758772E1],"tree_param":{"num_deleted":"0","num_feature":"24","num_nodes":"13","size_leaf_vector":"1"}},{"base_weights":[2.092797E-3,-8.6693056E-2,2.9800752E-1,6.014125E-2,-6.526358E-1,5.33008E-1,-3.1693053E-2,2.9018534E-2,-2.7730161E-2,3.2173924E-2,-9.270672E-2,6.742466E-2,-3.680729E-3],"categories":[],"categories_nodes":[],"categories_segments":[],"categories_sizes":[],"default_left":[0,0,0,0,0,0,0,0,0,0,0,0,0],"id":82,"left_children":[1,3,5,7,9,11,-1,-1,-1,-1,-1,-1,-1],"loss_changes":[9.3585473E-1,2.3176568E0,1.3567035E0,1.8414468E0,1.8311417E0,5.3341997E-1,0E0,0E0,0E0,0E0,0E0,0E0,0E0],"parents":[2147483647,0,0,1,1,2,2,3,3,4,4,5,5],"right_children":[2,4,6,8,10,12,-1,-1,-1,-1,-1,-1,-1],"split_conditions":[5.489725E-1,3.0238038E-1,1.4878774E10,4.25E0,-2.8759924E-1,1.9153867E0,-3.1693053E-2,2.9018534E-2,-2.7730161E-2,3.2173924E-2,-9.270672E-2,6.742466E-2,-3.680729E-3],"split_indices":[23,23,4,22,16,12,0,0,0,0,0,0,0],"split_type":[0,0,0,0,0,0,0,0,0,0,0,0,0],"sum_hessian":[3.363701E1,2.6417707E1,7.2192993E0,2.1685198E1,4.7325096E0,5.3196225E0,1.8996772E0,1.2977871E1,8.707327E0,1.0021098E0,3.7303996E0,4.1161027E0,1.2035196E0],"tree_param":{"num_deleted":"0","num_feature":"24","num_nodes":"13","size_leaf_vector":"1"}},{"base_weights":[9.6247916E-4,-7.3834814E-2,3.7532768E-1,7.280149E-2,-5.7295924E-1,-1.2137589E-2,6.027858E-1,1.5635444E-2,-6.3164495E-2,2.1371879E-3,-7.6507695E-2,7.7915035E-2,8.3711175E-3],"categories":[],"categories_nodes":[],"categories_segments":[],"categories_sizes":[],"default_left":[0,0,0,0,0,0,0,0,0,0,0,0,0],"id":83,"left_children":[1,3,5,7,9,-1,11,-1,-1,-1,-1,-1,-1],"loss_changes":[9.8078936E-1,2.1791654E0,7.3210084E-1,1.4795805E0,7.864263E-1,0E0,3.1634557E-1,0E0,0E0,0E0,0E0,0E0,0E0],"parents":[2147483647,0,0,1,1,2,2,3,3,4,4,6,6],"right_children":[2,4,6,8,10,-1,12,-1,-1,-1,-1,-1,-1],"split_conditions":[3.381076E0,1.7772543E0,2.1472916E-1,6.3046E10,7.55746E-2,-1.2137589E-2,2.0788288E-1,1.5635444E-2,-6.3164495E-2,2.1371879E-3,-7.6507695E-2,7.7915035E-2,8.3711175E-3],"split_indices":[12,12,18,4,11,0,16,0,0,0,0,0,0],"split_type":[0,0,0,0,0,0,0,0,0,0,0,0,0],"sum_hessian":[3.303664E1,2.8204268E1,4.832373E0,2.245996E1,5.744305E0,1.664331E0,3.1680422E0,2.0774042E1,1.6859199E0,1.620358E0,4.123947E0,1.9906482E0,1.177394E0],"tree_param":{"num_deleted":"0","num_feature":"24","num_nodes":"13","size_leaf_vector":"1"}},{"base_weights":[-6.179001E-4,4.0685666E-1,-6.600901E-2,2.349083E-2,6.807559E-2,-2.5029388E-1,1.4413618E-1,2.9969472E-2,-2.6631495E-2,5.6098183E-3,-9.4159864E-2,-5.903262E-2,2.5559774E-2],"categories":[],"categories_nodes":[],"categories_segments":[],"categories_sizes":[],"default_left":[0,0,0,0,0,0,0,0,0,0,0,0,0],"id":84,"left_children":[1,3,5,7,-1,9,11,-1,-1,-1,-1,-1,-1],"loss_changes":[9.240365E-1,4.875952E-1,1.1930505E0,3.2269636E-1,0E0,3.5016289E0,1.3455257E0,0E0,0E0,0E0,0E0,0E0,0E0],"parents":[2147483647,0,0,1,1,2,2,3,3,5,5,6,6],"right_children":[2,4,6,8,-1,10,12,-1,-1,-1,-1,-1,-1],"split_conditions":[-3.6547327E-1,4.2393216E-1,2.658925E-1,1.6350139E0,6.807559E-2,5.3621825E-2,9.67E8,2.9969472E-2,-2.6631495E-2,5.6098183E-3,-9.4159864E-2,-5.903262E-2,2.5559774E-2],"split_indices":[8,13,17,12,0,17,6,0,0,0,0,0,0],"split_type":[0,0,0,0,0,0,0,0,0,0,0,0,0],"sum_hessian":[3.2671352E1,3.795899E0,2.8875454E1,2.0343146E0,1.7615843E0,1.528253E1,1.3592924E1,1.0241294E0,1.0101851E0,1.1225947E1,4.0565825E0,1.224961E0,1.2367963E1],"tree_param":{"num_deleted":"0","num_feature":"24","num_nodes":"13","size_leaf_vector":"1"}},{"base_weights":[-2.3506777E-3,-4.3815397E-2,6.0207922E-2,-1.1097942E-1,4.0766406E-1,-3.0107293E-4,-9.0128705E-2,6.384634E-2,-4.54352E-3],"categories":[],"categories_nodes":[],"categories_segments":[],"categories_sizes":[],"default_left":[0,0,0,0,0,0,0,0,0],"id":85,"left_children":[1,3,-1,5,7,-1,-1,-1,-1],"loss_changes":[8.585249E-1,1.0156868E0,0E0,2.4415197E0,4.8478872E-1,0E0,0E0,0E0,0E0],"parents":[2147483647,0,0,1,1,3,3,4,4],"right_children":[2,4,-1,6,8,-1,-1,-1,-1],"split_conditions":[1.2261502E0,9.5391E10,6.0207922E-2,6.3054E10,-2.34367E-2,-3.0107293E-4,-9.0128705E-2,6.384634E-2,-4.54352E-3],"split_indices":[18,6,0,0,17,0,0,0,0],"split_type":[0,0,0,0,0,0,0,0,0],"sum_hessian":[3.2202755E1,3.100339E1,1.1993653E0,2.7644989E1,3.3584003E0,2.5205343E1,2.4396448E0,1.9539806E0,1.4044198E0],"tree_param":{"num_deleted":"0","num_feature":"24","num_nodes":"9","size_leaf_vector":"1"}},{"base_weights":[-1.3285303E-3,3.9130178E-1,-6.404809E-2,-9.025666E-3,5.7616252E-2,-2.7686518E-1,1.18053295E-1,-4.8259027E-2,3.5374973E-2,5.8119316E-2,-6.497501E-3],"categories":[],"categories_nodes":[],"categories_segments":[],"categories_sizes":[],"default_left":[0,0,0,0,0,0,0,0,0,0,0],"id":86,"left_children":[1,3,5,-1,-1,7,9,-1,-1,-1,-1],"loss_changes":[8.3597594E-1,4.6829903E-1,1.1663772E0,0E0,0E0,1.9594762E0,1.433494E0,0E0,0E0,0E0,0E0],"parents":[2147483647,0,0,1,1,2,2,5,5,6,6],"right_children":[2,4,6,-1,-1,8,10,-1,-1,-1,-1],"split_conditions":[-3.6547327E-1,-5.519403E-1,3.132E9,-9.025666E-3,5.7616252E-2,5.489725E-1,4.332E9,-4.8259027E-2,3.5374973E-2,5.8119316E-2,-6.497501E-3],"split_indices":[8,9,1,0,0,23,1,0,0,0,0],"split_type":[0,0,0,0,0,0,0,0,0,0,0],"sum_hessian":[3.1929712E1,3.6763716E0,2.825334E1,1.1617627E0,2.5146086E0,1.2787977E1,1.5465363E1,9.819348E0,2.9686291E0,3.764398E0,1.1700964E1],"tree_param":{"num_deleted":"0","num_feature":"24","num_nodes":"11","size_leaf_vector":"1"}},{"base_weights":[1.5693688E-3,2.4092972E-1,-1.01026535E-1,-2.6387247E-1,5.0078946E-1,-2.2734109E-1,3.506882E-1,3.561483E-2,-6.1131656E-2,6.5293245E-2,-1.3804938E-2,1.5061981E-2,-4.8285544E-2,-1.2675765E-2,5.7163414E-2],"categories":[],"categories_nodes":[],"categories_segments":[],"categories_sizes":[],"default_left":[0,0,0,0,0,0,0,0,0,0,0,0,0,0,0],"id":87,"left_children":[1,3,5,7,9,11,13,-1,-1,-1,-1,-1,-1,-1,-1],"loss_changes":[8.2489234E-1,1.4539003E0,1.4219137E0,1.0964555E0,7.702031E-1,1.9066212E0,6.562108E-1,0E0,0E0,0E0,0E0,0E0,0E0,0E0,0E0],"parents":[2147483647,0,0,1,1,2,2,3,3,4,4,5,5,6,6],"right_children":[2,4,6,8,10,12,14,-1,-1,-1,-1,-1,-1,-1,-1],"split_conditions":[1.6137146E0,1.344449E0,3.381076E0,2.684275E9,4.5265567E-1,8.566913E-2,2.1472916E-1,3.561483E-2,-6.1131656E-2,6.5293245E-2,-1.3804938E-2,1.5061981E-2,-4.8285544E-2,-1.2675765E-2,5.7163414E-2],"split_indices":[12,12,12,0,23,18,18,0,0,0,0,0,0,0,0],"split_type":[0,0,0,0,0,0,0,0,0,0,0,0,0,0,0],"sum_hessian":[3.1599228E1,9.076066E0,2.2523163E1,3.0791273E0,5.9969387E0,1.7989431E1,4.5337315E0,1.0968052E0,1.9823222E0,4.825628E0,1.171311E0,7.421683E0,1.0567748E1,1.5691733E0,2.964558E0],"tree_param":{"num_deleted":"0","num_feature":"24","num_nodes":"15","size_leaf_vector":"1"}},{"base_weights":[2.6731386E-3,-3.8581014E-2,5.9285503E-2,3.7829202E-1,-1.0585391E-1,1.3200195E-3,6.5045886E-2,3.4912564E-3,-4.473275E-2],"categories":[],"categories_nodes":[],"categories_segments":[],"categories_sizes":[],"default_left":[0,0,0,0,0,0,0,0,0],"id":88,"left_children":[1,3,-1,5,7,-1,-1,-1,-1],"loss_changes":[8.070327E-1,9.105862E-1,0E0,4.4173437E-1,1.3379592E0,0E0,0E0,0E0,0E0],"parents":[2147483647,0,0,1,1,3,3,4,4],"right_children":[2,4,-1,6,8,-1,-1,-1,-1],"split_conditions":[1.2261502E0,-3.6547327E-1,5.9285503E-2,4.2393216E-1,1.7513534E0,1.3200195E-3,6.5045886E-2,3.4912564E-3,-4.473275E-2],"split_indices":[18,8,0,13,12,0,0,0,0],"split_type":[0,0,0,0,0,0,0,0,0],"sum_hessian":[3.1207052E1,3.0041742E1,1.1653113E0,3.5319428E0,2.6509798E1,1.9562616E0,1.5756811E0,1.9407257E1,7.102541E0],"tree_param":{"num_deleted":"0","num_feature":"24","num_nodes":"9","size_leaf_vector":"1"}},{"base_weights":[5.1568593E-3,-6.468285E-2,3.491735E-1,2.7672201E-2,-6.236529E-1,6.3849485E-1,-2.4894947E-2,-1.0843601E-2,5.281183E-2,-9.6608745E-3,-8.568977E-2,1.6020602E-2,7.486152E-2],"categories":[],"categories_nodes":[],"categories_segments":[],"categories_sizes":[],"default_left":[0,0,0,0,0,0,0,0,0,0,0,0,0],"id":89,"left_children":[1,3,5,7,9,11,-1,-1,-1,-1,-1,-1,-1],"loss_changes":[7.9126006E-1,1.4337153E0,1.120295E0,1.7264229E0,4.0071237E-1,9.2045784E-2,0E0,0E0,0E0,0E0,0E0,0E0,0E0],"parents":[2147483647,0,0,1,1,2,2,3,3,4,4,5,5],"right_children":[2,4,6,8,10,12,-1,-1,-1,-1,-1,-1,-1],"split_conditions":[7.2467875E-1,4.8787475E-1,1.5497091E-1,2.3838201E-1,1.6582024E0,9.929793E9,-2.4894947E-2,-1.0843601E-2,5.281183E-2,-9.6608745E-3,-8.568977E-2,1.6020602E-2,7.486152E-2],"split_indices":[18,18,8,18,12,3,0,0,0,0,0,0,0],"split_type":[0,0,0,0,0,0,0,0,0,0,0,0,0],"sum_hessian":[3.0993418E1,2.6438124E1,4.555294E0,2.3505032E1,2.9330919E0,3.0247014E0,1.5305927E0,1.909501E1,4.410021E0,1.3336797E0,1.5994122E0,1.0254897E0,1.9992118E0],"tree_param":{"num_deleted":"0","num_feature":"24","num_nodes":"13","size_leaf_vector":"1"}},{"base_weights":[5.2161054E-3,4.5141805E-2,-5.7911545E-2,2.8479245E-1,-5.7994172E-2,4.5387257E-2,-3.5760026E-2,4.983449E-2,-1.5206804E-2],"categories":[],"categories_nodes":[],"categories_segments":[],"categories_sizes":[],"default_left":[0,0,0,0,0,0,0,0,0],"id":90,"left_children":[1,3,-1,5,7,-1,-1,-1,-1],"loss_changes":[7.6557547E-1,7.7272856E-1,0E0,1.1805301E0,1.2387495E0,0E0,0E0,0E0,0E0],"parents":[2147483647,0,0,1,1,3,3,4,4],"right_children":[2,4,-1,6,8,-1,-1,-1,-1],"split_conditions":[2.913098E-1,1.6137146E0,-5.7911545E-2,1.73171E-1,-2.0782622E-2,4.5387257E-2,-3.5760026E-2,4.983449E-2,-1.5206804E-2],"split_indices":[11,12,0,8,16,0,0,0,0],"split_type":[0,0,0,0,0,0,0,0,0],"sum_hessian":[3.069473E1,2.9595314E1,1.0994167E0,8.374555E0,2.122076E1,6.8619337E0,1.5126204E0,2.4477491E0,1.877301E1],"tree_param":{"num_deleted":"0","num_feature":"24","num_nodes":"9","size_leaf_vector":"1"}},{"base_weights":[4.3627955E-3,-4.2486798E-2,5.1437855E-2,-1.4021225E-1,2.691144E-1,1.1204195E-2,-4.3554068E-2,5.83025E-2,-1.1956169E-2],"categories":[],"categories_nodes":[],"categories_segments":[],"categories_sizes":[],"default_left":[0,0,0,0,0,0,0,0,0],"id":91,"left_children":[1,3,-1,5,7,-1,-1,-1,-1],"loss_changes":[7.7365005E-1,9.433683E-1,0E0,1.7844058E0,9.7782004E-1,0E0,0E0,0E0,0E0],"parents":[2147483647,0,0,1,1,3,3,4,4],"right_children":[2,4,-1,6,8,-1,-1,-1,-1],"split_conditions":[3.4695768E0,5.489725E-1,5.1437855E-2,9.949085E-2,6.2067732E-2,1.1204195E-2,-4.3554068E-2,5.83025E-2,-1.1956169E-2],"split_indices":[16,23,0,16,8,0,0,0,0],"split_type":[0,0,0,0,0,0,0,0,0],"sum_hessian":[3.0463749E1,2.8740377E1,1.7233704E0,2.2297413E1,6.442965E0,1.2360411E1,9.937001E0,3.2876766E0,3.1552887E0],"tree_param":{"num_deleted":"0","num_feature":"24","num_nodes":"9","size_leaf_vector":"1"}},{"base_weights":[6.167795E-3,-6.151908E-2,3.612922E-1,-6.199345E-2,1.04765445E-2,-2.0359779E-2,5.8508445E-2,4.778741E-2,-8.640167E-3],"categories":[],"categories_nodes":[],"categories_segments":[],"categories_sizes":[],"default_left":[0,0,0,0,0,0,0,0,0],"id":92,"left_children":[1,3,5,-1,7,-1,-1,-1,-1],"loss_changes":[7.7207327E-1,1.0942286E0,7.6884276E-1,0E0,1.1710061E0,0E0,0E0,0E0,0E0],"parents":[2147483647,0,0,1,1,2,2,4,4],"right_children":[2,4,6,-1,8,-1,-1,-1,-1],"split_conditions":[7.099496E-1,1.058468E9,1.8843187E-1,-6.199345E-2,-7.607219E-2,-2.0359779E-2,5.8508445E-2,4.778741E-2,-8.640167E-3],"split_indices":[13,0,17,0,8,0,0,0,0],"split_type":[0,0,0,0,0,0,0,0,0],"sum_hessian":[3.0195189E1,2.6055723E1,4.139465E0,2.1064973E0,2.3949226E1,1.2001975E0,2.9392674E0,3.436551E0,2.0512674E1],"tree_param":{"num_deleted":"0","num_feature":"24","num_nodes":"9","size_leaf_vector":"1"}},{"base_weights":[6.186662E-3,3.2289138E-1,-6.9227025E-2,5.0014436E-1,-8.387978E-3,-6.9600336E-2,8.672694E-3,5.8877606E-2,1.7662851E-2,-7.3948144E-3,5.0205227E-2],"categories":[],"categories_nodes":[],"categories_segments":[],"categories_sizes":[],"default_left":[0,0,0,0,0,0,0,0,0,0,0],"id":93,"left_children":[1,3,5,7,-1,-1,9,-1,-1,-1,-1],"loss_changes":[7.6193297E-1,4.840762E-1,1.267384E0,2.2586703E-2,0E0,0E0,1.0140439E0,0E0,0E0,0E0,0E0],"parents":[2147483647,0,0,1,1,2,2,3,3,6,6],"right_children":[2,4,6,8,-1,-1,10,-1,-1,-1,-1],"split_conditions":[-2.7854426E-2,1.5497091E-1,2.7008262E-1,4.5040694E-1,-8.387978E-3,-6.9600336E-2,8.2137E10,5.8877606E-2,1.7662851E-2,-7.3948144E-3,5.0205227E-2],"split_indices":[23,8,23,13,0,0,6,0,0,0,0],"split_type":[0,0,0,0,0,0,0,0,0,0,0],"sum_hessian":[2.9965672E1,5.1319804E0,2.483369E1,3.4145312E0,1.7174493E0,1.8681408E0,2.296555E1,2.0366366E0,1.3778946E0,2.0399576E1,2.5659733E0],"tree_param":{"num_deleted":"0","num_feature":"24","num_nodes":"11","size_leaf_vector":"1"}},{"base_weights":[6.9549666E-3,3.862768E-1,-5.266993E-2,-6.8852003E-3,5.5174172E-2,-2.4238132E-1,1.6056442E-1,1.299987E-3,-6.1577257E-2,8.262565E-2,-5.2650073E-3],"categories":[],"categories_nodes":[],"categories_segments":[],"categories_sizes":[],"default_left":[0,0,0,0,0,0,0,0,0,0,0],"id":94,"left_children":[1,3,5,-1,-1,7,9,-1,-1,-1,-1],"loss_changes":[7.1518207E-1,3.612951E-1,1.1484914E0,0E0,0E0,1.4301078E0,1.9617951E0,0E0,0E0,0E0,0E0],"parents":[2147483647,0,0,1,1,2,2,5,5,6,6],"right_children":[2,4,6,-1,-1,8,10,-1,-1,-1,-1],"split_conditions":[-3.6547327E-1,-5.519403E-1,1.6746862E-1,-6.8852003E-3,5.5174172E-2,3.861E10,1.8283492E-1,1.299987E-3,-6.1577257E-2,8.262565E-2,-5.2650073E-3],"split_indices":[8,9,9,0,0,3,9,0,0,0,0],"split_type":[0,0,0,0,0,0,0,0,0,0,0],"sum_hessian":[2.9721851E1,3.293134E0,2.6428717E1,1.0337054E0,2.2594287E0,1.3913445E1,